tree
version=v4
num_class=1
num_tree_per_iteration=1
label_index=0
max_feature_idx=98
objective=regression
feature_names=customer_id product_id plan_precios_cuidados cust_request_qty cust_request_tn cat1 cat2 cat3 brand sku_size productos_estrella mes catastrofe cliente_estrella tn_lag_1 tn_lag_2 tn_lag_3 tn_lag_4 tn_lag_5 tn_lag_6 tn_lag_7 tn_lag_8 tn_lag_9 tn_lag_10 tn_lag_11 tn_lag_12 tn_lag_13 tn_lag_14 tn_lag_15 tn_lag_16 tn_lag_17 tn_lag_18 tn_lag_19 tn_lag_20 tn_lag_21 tn_lag_22 tn_lag_23 tn_lag_24 tn_lag_25 tn_lag_26 tn_lag_27 tn_lag_28 tn_lag_29 tn_lag_30 tn_lag_31 tn_lag_32 tn_lag_33 tn_lag_34 tn_lag_35 tn_lag_36 tn_mas_2 delta_tn_lag_1 delta_tn_lag_2 delta_tn_lag_3 delta_tn_lag_4 delta_tn_lag_5 delta_tn_lag_6 delta_tn_lag_7 delta_tn_lag_8 delta_tn_lag_9 delta_tn_lag_10 delta_tn_lag_11 delta_tn_lag_12 delta_tn_lag_13 delta_tn_lag_14 delta_tn_lag_15 delta_tn_lag_16 delta_tn_lag_17 delta_tn_lag_18 delta_tn_lag_19 delta_tn_lag_20 delta_tn_lag_21 delta_tn_lag_22 delta_tn_lag_23 delta_tn_lag_24 delta_tn_lag_25 delta_tn_lag_26 delta_tn_lag_27 delta_tn_lag_28 delta_tn_lag_29 delta_tn_lag_30 delta_tn_lag_31 delta_tn_lag_32 delta_tn_lag_33 delta_tn_lag_34 delta_tn_lag_35 ipc var_mensual var_anual promedio_mens_dolar_venta temp_media temp_max_media temp_min_media tn_mean tn_std tn_max tn_min cat1_enc brand_enc
feature_infos=[10001:10588] [20001:21266] [0:1] [0:92] [0:510.80000000000001] -1:1:0:2 -1:12:10:1:0:4:14:3:9:7:5:6:8:11:2 -1:55:43:0:61:42:69:3:28:16:21:44:48:20:49:36:72:12:37:67:2:19:25:9:14:51:56:17:6:40:65:13:77:63:5:54:10:18:27:26:38:47:57:24:73:11:60:50:71:59:66:22:8:64:35:58:32:4:46:68:30:45:74:39:23:29:33:62:34:70:75:31:53:1:52:15:76 -1:16:15:21:22:30:23:5:25:29:8:1:0:19:20:11:18:32:28:14:17:3:26:12:2:7:27:9:10:24:6:4:13 [1:10000] [0:1] [1:12] [0:1] [0:1] [0:548] [0:548] [0:548] [0:548] [0:548] [0:440] [0:440] [0:548] [0:469.5] [0:440] [0:437.5] [0:431] [0:384.80000000000001] [0:469.5] [0:232.19999999999999] [0:364.19999999999999] [0:364.19999999999999] [0:269] [0:220.09999999999999] [0:180.19999999999999] [0:178.59999999999999] [0:187.40000000000001] [0:133.09999999999999] [0:198.5] [0:212.5] [0:264.5] [0:102.75] [0:379.5] [0:121.59999999999999] [0:229] [0:185.5] [0:244] [0:220.09999999999999] [0:185.5] [0:266.5] [0:220.09999999999999] [0:469.5] [-526.5:440] [-537.5:449.80000000000001] [-469.5:440] [-537:469.5] [-508.19999999999999:469.5] [-366.19999999999999:469.5] [-412.80000000000001:469.5] [-517:469.5] [-417:469.5] [-409.5:469.5] [-356.19999999999999:469.5] [-380.80000000000001:469.5] [-335.5:469.5] [-417.19999999999999:469.5] [-195.90000000000001:469.5] [-327.5:469.5] [-289.5:469.5] [-239:469.5] [-199.80000000000001:469.5] [-149.40000000000001:469.5] [-138.59999999999999:469.5] [-171.80000000000001:469.5] [-118.09999999999999:469.5] [-185.59999999999999:469.5] [-187.80000000000001:469.5] [-226.80000000000001:469.5] [-92:469.5] [-347.5:469.5] [-98.599999999999994:469.5] [-190.90000000000001:469.5] [-168.59999999999999:469.5] [-212.40000000000001:469.5] [-202:469.5] [-162:469.5] [-223.5:469.5] [101.56:283.5] [1.1899999999999999:6.5300000000000002] [24.800000000000001:57.299999999999997] [15.359999999999999:59.880000000000003] [10.5:25.66] [13.5:31.399999999999999] [6.9000000000000004:20.899999999999999] [0:51.927944444444442] [0:104.39446866092588] [0:548] none [0:3] [0:34]
tree_sizes=7760 9276 9723 9313 8042 8219 7966 8322 9549 8429 9638 8628 8278 7973 9424 8157 8187 8360 8141 8341 8397 9741 9829 8230 8293 8488 8579 9303 8978 8836 8388 8685 8982 8420 9056 8796 8086 8099 8517 8093 8826 8097 8727 8572 8478 8691 8762 8316 8771 8869 9074 8179 9184 8299 8641 9169 8507 8852 8676 9025 9216 7934 8490 8987 8862 8427 8860 9291 8247 9441 9295 7809 8992 9092 8492 8689

Tree=0
num_leaves=90
num_cat=0
split_feature=78 4 4 4 85 1 0 4 78 76 4 85 89 14 51 52 59 4 4 4 76 71 4 85 85 57 56 71 84 4 84 4 84 4 66 4 76 52 70 84 85 4 76 4 70 76 4 4 4 75 4 84 84 75 4 56 63 52 4 4 76 75 84 67 52 76 70 68 4 84 84 85 84 84 84 68 4 80 4 4 75 84 75 4 66 84 4 4 65
split_gain=1.02516e+07 3.00454e+06 2.25081e+06 504090 481555 323850 240356 80134.7 78677.2 72467.6 71931.9 59412.8 23232.1 18461.9 16014.4 15907 12186.1 11069.3 10486.9 10150.3 9946.13 9666.12 7450.94 6902.24 5327.43 2873.83 2431.64 1983.03 1975.46 1786.3 1295.05 1281.11 1235.1 1081.22 962.871 890.987 863.164 1105.56 846.498 830.519 585.8 493.96 368.089 357.824 226.474 197.676 178.75 159.194 159.038 154.224 146.868 144.699 132.582 117.369 115.782 96.9277 94.1696 215.234 87.2707 77.9297 73.1832 64.3164 59.2202 43.7353 137.286 43.0732 37.9639 37.4271 29.3325 29.2839 27.9231 27.653 23.7747 20.0723 16.578 16.3947 15.2143 12.9445 11.0021 9.85261 7.49726 5.82457 5.51124 4.94612 4.62251 3.20362 1.01592 0.498214 0.286452
threshold=37.890000000000008 9.2550000000000008 75.030000000000015 2.8015000000000003 20.210000000000004 20002.500000000004 10005.500000000002 0.96715000000000007 48.340000000000011 13.825000000000001 5.642500000000001 27.525000000000002 17.945000000000004 2.4170000000000003 53.580000000000005 55.790000000000006 63.560000000000009 0.37785000000000007 1.8155000000000003 4.096000000000001 17.025000000000002 11.447500000000002 7.237000000000001 31.610000000000003 24.540000000000003 22.680000000000003 11.355000000000002 14.565000000000003 10.065000000000003 1.3542500000000002 4.7560000000000011 3.4390000000000005 8.1620000000000008 2.2630000000000003 0.13175000000000003 0.66480000000000017 7.8525000000000009 6.291500000000001 15.565000000000003 6.291500000000001 22.105000000000004 12.635000000000003 18.395000000000003 14.1225 4.4390000000000009 7.5485000000000007 1.5935000000000004 3.1260000000000003 1.1505000000000003 3.7005000000000003 2.5170000000000003 11.655000000000003 5.1820000000000013 6.0090000000000012 2.0190000000000006 4.5575000000000001 5.9675000000000002 5.7630000000000008 0.51880000000000004 0.80210000000000015 3.8330000000000006 0.25210000000000005 6.7320000000000011 5.4750000000000005 4.642500000000001 9.6050000000000022 4.838000000000001 0.050265000000000004 1.4895000000000003 3.1890000000000005 2.9505000000000003 3.6030000000000002 2.6220000000000003 2.4190000000000005 2.1415000000000002 3.0930000000000004 8.5950000000000006 2.5770000000000004 3.8430000000000004 1.6935000000000002 2.6280000000000006 1.9165000000000003 2.3545000000000003 1.2325000000000002 2.5790000000000002 2.6850000000000005 3.2805000000000004 3.7530000000000006 2.0930000000000004
decision_type=2 2 2 2 2 2 2 2 2 2 2 2 2 2 2 2 2 2 2 2 2 2 2 2 2 2 2 2 2 2 2 2 2 2 2 2 2 2 2 2 2 2 2 2 2 2 2 2 2 2 2 2 2 2 2 2 2 2 2 2 2 2 2 2 2 2 2 2 2 2 2 2 2 2 2 2 2 2 2 2 2 2 2 2 2 2 2 2 2
left_child=1 3 8 7 9 6 12 17 -2 21 19 24 -4 -14 -7 -8 -10 34 29 31 38 26 39 -13 40 42 28 41 36 48 44 47 45 54 67 58 37 -3 -11 53 -6 -23 -22 -28 55 56 68 70 -9 71 73 -30 -32 63 81 60 57 -24 -19 -37 -21 -36 -41 64 -12 -38 -46 -1 -31 80 77 75 84 82 88 -33 -34 -5 -51 -48 -49 -20 -35 -50 -52 -74 -71 -73 -56
right_child=2 4 5 10 11 14 15 18 16 20 22 23 13 -15 -16 -17 -18 35 33 30 25 27 32 -25 -26 -27 43 -29 51 46 52 49 76 50 61 59 65 -39 -40 62 -42 -43 -44 -45 66 -47 79 69 83 78 72 -53 -54 -55 74 -57 -58 -59 -60 -61 -62 -63 -64 -65 -66 -67 -68 -69 -70 86 -72 87 85 -75 -76 -77 -78 -79 -80 -81 -82 -83 -84 -85 -86 -87 -88 -89 -90
leaf_value=2.5381381668804179 4.7709467725794807 2.8496078726306151 9.6648669447224371 2.6787121178070197 3.6425622346125532 6.8106391433091256 6.9974725767558015 2.5929986128757934 5.4351563626994821 3.3116314757750227 2.7904269098218077 4.0834151363704798 14.183109929909733 11.079029657710169 8.1241872295553872 9.0639778783920484 6.0876796913150635 2.5613623237696523 2.6351271346171701 2.7412547669911334 3.4626812423378199 3.1677698074102554 2.8383354624206043 4.3493867788729084 3.8999828360181708 3.9888569752810668 3.1787040919873557 3.4578371463137869 3.0984098325136018 2.6121882913367784 2.7985849871618385 2.7105117889553054 2.9738459247634168 2.6587419217524335 2.5479283755483202 2.5767372432006441 3.0247427602598065 3.0341971499940619 3.3974093939349728 2.8793397771283935 3.7547325417109576 3.2303767473904097 3.5517711946916273 3.3682647738006573 2.7797379572687122 2.9515987394366889 2.624055039030448 2.6950075272663607 2.6000840346165863 2.7347953089050394 2.670316673785718 3.2036059380338267 2.8207140104161059 2.8646418450529043 2.6451294723725205 2.7957185065541412 2.9280474005036372 2.9294099065996182 2.5690687156939487 2.583461390419945 2.7620186414727819 2.5543206832218379 2.9031900970435971 2.8467277599937546 2.8465237922842723 3.0619545444063023 2.8090259231006556 2.5429222218750058 2.6188250566082685 2.7071604124259809 2.6969392311006817 2.7287829439575035 2.6771767283610735 2.6678378298293643 2.6535577719744667 2.723317325452645 3.0022971802607294 2.6895822127689986 2.7453180789614824 2.6291770349489516 2.7041190470552352 2.6411476346152072 2.6637168851839288 2.6051982802950486 2.6755799681747607 2.6814912882154034 2.7133509857608518 2.7417641482008928 2.6499438179664914
leaf_weight=60003 665 181 36 423 657 71 36 9995 535 1290 272 682 44 59 303 93 156 10031 2788 757 655 1085 181 696 660 42 242 96 1731 4817 1982 546 803 2444 14427 11641 821 203 758 1282 674 1096 760 62 1630 1337 4830 544 3804 919 1525 89 1755 1124 2293 225 1089 186 11250 12871 2383 11848 1177 1317 346 775 229 10474 5799 805 1668 738 644 1693 1933 1627 1132 1611 1745 3763 1322 1641 1546 5412 867 1248 1429 248 1059
leaf_count=60003 665 181 36 423 657 71 36 9995 535 1290 272 682 44 59 303 93 156 10031 2788 757 655 1085 181 696 660 42 242 96 1731 4817 1982 546 803 2444 14427 11641 821 203 758 1282 674 1096 760 62 1630 1337 4830 544 3804 919 1525 89 1755 1124 2293 225 1089 186 11250 12871 2383 11848 1177 1317 346 775 229 10474 5799 805 1668 738 644 1693 1933 1627 1132 1611 1745 3763 1322 1641 1546 5412 867 1248 1429 248 1059
internal_value=2.67806 2.64783 6.40831 2.60433 3.41393 8.95767 10.383 2.57323 5.1935 3.22962 2.79434 3.95404 11.9582 12.6057 7.89929 8.56552 5.59244 2.55212 2.62502 2.74217 3.42094 3.12429 2.9093 4.2202 3.76833 3.52761 3.07561 3.21149 3.06352 2.60911 2.78542 2.71369 2.95767 2.6561 2.54208 2.57335 3.02555 2.94914 3.34418 2.86773 3.7011 3.19982 3.51188 3.22245 2.76838 2.93434 2.62045 2.69978 2.5978 2.73228 2.66824 3.10426 2.80911 2.84881 2.64367 2.75984 2.91797 2.88624 2.56541 2.58025 2.75713 2.55079 2.89102 2.83931 2.82265 3.04342 2.78361 2.53884 2.61578 2.70693 2.69178 2.72414 2.67561 2.66272 2.64907 2.72024 2.99093 2.68743 2.74182 2.62626 2.7016 2.63729 2.66061 2.60305 2.67213 2.67991 2.71125 2.7324 2.64657
internal_weight=248731 246733 1998 233478 13255 642 268 200646 1356 9886 32832 3369 139 103 374 129 691 142545 58101 22586 3505 6381 10246 1378 1991 1457 4104 2277 3800 38420 8961 13625 4728 19681 96752 45793 1980 384 2048 5518 1331 2181 1415 304 5224 2793 19209 7802 19211 5823 9967 1820 3737 3059 9714 3365 1456 367 21281 24512 3140 26275 2459 1935 618 1596 1859 70477 10616 4100 3702 3159 4284 5683 5285 2173 1935 2034 2664 8593 1866 4429 3990 9216 2392 1892 2234 986 3352
internal_count=248731 246733 1998 233478 13255 642 268 200646 1356 9886 32832 3369 139 103 374 129 691 142545 58101 22586 3505 6381 10246 1378 1991 1457 4104 2277 3800 38420 8961 13625 4728 19681 96752 45793 1980 384 2048 5518 1331 2181 1415 304 5224 2793 19209 7802 19211 5823 9967 1820 3737 3059 9714 3365 1456 367 21281 24512 3140 26275 2459 1935 618 1596 1859 70477 10616 4100 3702 3159 4284 5683 5285 2173 1935 2034 2664 8593 1866 4429 3990 9216 2392 1892 2234 986 3352
is_linear=0
shrinkage=1


Tree=1
num_leaves=105
num_cat=0
split_feature=78 85 78 79 85 1 0 72 79 78 85 85 89 3 63 72 55 57 75 72 78 79 63 85 57 79 75 57 13 55 57 79 54 57 57 73 35 55 35 85 79 85 72 72 72 93 59 63 75 72 63 79 79 85 57 54 35 78 35 35 54 93 79 81 26 72 79 59 72 79 62 60 75 72 26 72 72 79 26 66 79 85 35 57 65 62 55 72 72 55 75 75 26 73 54 35 78 61 59 72 60 54 79 38
split_gain=9.22265e+06 2.65036e+06 2.02715e+06 461516 407882 312786 222812 81885.6 66160.7 61054.3 55657.2 53363.8 20008.1 21261 17581.8 16719.9 14849.9 13760 9177.94 8428.56 7125.3 6886.07 6507.58 6188.29 6182.39 6099.39 4785.92 3462.48 3352.92 2909.74 2660.83 2362.85 2021.85 1978.1 1754.26 1562.51 1449.94 1283.71 1215.15 1129.62 1116.19 1025.74 979.204 948.676 919.916 917.414 827.711 776.49 689.698 652.598 609.731 569.085 518.897 439.115 426.758 393.408 382.846 371.075 317.312 296.089 293.598 276.881 274.562 267.901 259.555 250.7 248.625 238.886 188.094 187.863 182.253 175.607 158.734 138.091 132.547 130.208 119.399 113.466 108.774 105.803 98.6216 97.7804 96.6185 91.9038 87.6762 85.1061 83.6796 73.9652 68.409 60.7347 54.2887 49.8526 43.3129 38.5155 36.4305 35.9463 30.2611 27.1548 22.4141 22.2718 14.8124 10.8015 2.55085 2.11494
threshold=37.890000000000008 9.2050000000000018 70.725000000000009 2.8990000000000005 20.210000000000004 20002.500000000004 10005.500000000002 1.0825000000000002 5.8025000000000011 48.340000000000011 13.942500000000001 27.525000000000002 17.945000000000004 21.500000000000004 0.46670000000000006 3.6060000000000003 59.900000000000006 11.475000000000003 4.4390000000000009 1.9135000000000002 17.240000000000006 11.435 1.6215000000000004 31.610000000000003 61.765000000000008 7.4040000000000008 24.320000000000004 8.0250000000000004 1.0000000180025095e-35 59.900000000000006 17.760000000000002 3.7005000000000003 4.096000000000001 6.6115000000000013 15.982000000000001 0.17340000000000003 0.56025000000000014 1.0925000000000002 0.86315000000000008 15.895000000000001 9.4170000000000016 10.495000000000003 1.4575000000000002 2.4250000000000003 5.3850000000000007 1.5621486111111111 5.1620000000000008 0.76830000000000009 5.1315000000000008 6.791500000000001 2.8310000000000004 12.807500000000003 8.2850000000000019 22.105000000000004 4.6315000000000008 11.395000000000001 2.2590000000000003 18.630000000000006 1.1225000000000003 2.4520000000000004 8.6850000000000005 2.881315277777778 4.4280000000000008 1.3145000000000002 1.2885000000000002 2.8895000000000004 3.2920000000000003 6.7715000000000005 7.8975000000000009 6.3815000000000008 6.3270000000000008 1.1895000000000002 0.34070000000000006 1.6785000000000003 0.5323500000000001 2.1850000000000005 7.0610000000000008 4.088000000000001 0.10930000000000002 0.06235000000000001 1.3165000000000002 11.655000000000003 1.2885000000000002 4.3025000000000011 1.2605000000000002 6.3270000000000008 3.4830000000000005 4.2825000000000015 0.61735000000000018 1.4505000000000001 4.8420000000000014 5.455000000000001 2.0460000000000007 9.833000000000002 3.8330000000000006 2.9735000000000005 2.1850000000000005 2.5770000000000004 8.552500000000002 2.1850000000000005 7.2285000000000013 5.1475000000000009 4.838000000000001 0.33240000000000008
decision_type=2 2 2 2 2 2 2 2 2 2 2 2 2 2 2 2 2 2 2 2 2 2 2 2 2 2 2 2 2 2 2 2 2 2 2 2 2 2 2 2 2 2 2 2 2 2 2 2 2 2 2 2 2 2 2 2 2 2 2 2 2 2 2 2 2 2 2 2 2 2 2 2 2 2 2 2 2 2 2 2 2 2 2 2 2 2 2 2 2 2 2 2 2 2 2 2 2 2 2 2 2 2 2 2
left_child=1 3 9 7 10 6 12 14 18 -2 21 26 -4 -14 28 19 -8 25 31 36 39 41 37 -13 -11 49 53 44 45 -7 -19 54 50 48 51 79 42 47 43 -12 52 93 80 75 58 63 62 78 90 69 74 -23 98 -6 66 -29 82 -22 87 99 -35 97 77 84 89 -45 86 101 -51 -10 91 -49 -37 -44 -24 -21 -46 -33 -16 -30 -9 -43 -38 -52 -1 -48 -5 -17 -74 -39 103 -50 -66 -3 -68 -58 -65 -47 -27 -40 -71 -34 -64 -20
right_child=2 4 5 8 11 29 16 15 17 24 20 23 13 -15 22 27 -18 30 33 38 57 34 32 -25 -26 40 -28 55 35 -31 -32 46 67 60 -36 72 56 64 59 -41 -42 81 73 65 76 61 85 71 70 68 83 -53 -54 -55 -56 -57 95 -59 -60 -61 -62 -63 102 96 92 -67 94 -69 -70 100 -72 -73 88 -75 -76 -77 -78 -79 -80 -81 -82 -83 -84 -85 -86 -87 -88 -89 -90 -91 -92 -93 -94 -95 -96 -97 -98 -99 -100 -101 -102 -103 -104 -105
leaf_value=-0.09033458105452892 1.9832687200288837 0.34156162512933752 6.650159946818861 0.021543055613791884 0.91328953520849654 3.7202881065719908 4.5001646935132893 -0.072060919209823118 0.17125178991548526 2.5896158153276478 0.60475526424345105 1.3320527344654491 7.9185449486322774 10.940797944847041 -0.10192569785900982 0.066714602787031577 6.2765403303499312 0.56015123238799369 0.097347889091566941 -0.029253537198407755 0.75165577622212076 0.46750287509772642 -0.029054266221423698 1.5841468593822419 3.1273940997276797 0.25660771082939904 1.152138009087033 0.35197821608609531 -0.1325464462106507 5.0001570095895325 1.0536780786769688 0.061572044084382729 0.10293567202471422 0.2546149506997929 0.8697626543578596 -0.12019307502551622 -0.01808617811399138 -0.067057856125362067 0.029264933406306905 0.69767431236590816 0.42819400059354756 0.41307185214230524 -0.054018201998142272 -0.0018016486645182303 0.1841814853985107 -0.013410926568615223 0.15416829962743309 -0.087320623093822908 0.12919375095486849 0.22070490071573687 0.044745895332403363 0.53195809411300465 0.30168864317989558 1.018100666716782 0.16674360338351393 0.61268027215603027 0.06029744730639644 0.84241315272076922 0.19230468721979707 0.18935181448428259 0.44566409485744424 0.1587508343723959 0.10006686783399117 -0.046468419615257571 -0.0053698548992224798 0.028069189988785714 0.040475921399705572 0.31995749156663356 0.32515094274063761 0.19686564724997846 0.2357451492595608 -0.054194388832650091 -0.1125996089407114 -0.043372650582549098 0.015289822133644935 -0.016657404408832354 0.27469379896518398 0.078464756801318924 -0.088060165275803973 -0.12682740981989174 -0.062055190571426964 0.50652068246750193 0.017919177015984947 0.13724143211414352 -0.04581332878472047 0.25411826250830666 0.064681245027144355 0.10916646343377907 -0.091516621482603241 -0.048388724856798036 0.11518640824035209 0.14802773135056063 0.057989170981461877 0.37403973954307213 0.077896955909312823 0.14674118238744185 0 0.035998055351047928 0.33753675812509648 0.072777628246741388 0.26363421410634102 0.17585491215970911 0.12834302375275472 0.13162161414968981
leaf_weight=3287 666 1123 36 4354 655 38 58 10147 2030 521 1353 682 58 45 20940 333 74 137 1939 5107 631 1330 1503 696 145 2025 705 72 61407 357 45 2770 47 131 38 17832 964 1475 68 760 153 1147 9178 6027 201 94 132 20253 1305 1470 256 930 1681 631 63 35 48 667 93 66 38 38 223 321 124 878 3569 35 67 1327 64 497 9966 5855 202 4245 89 2210 2075 14490 4462 100 251 36 154 52 131 243 625 938 1313 1375 35 887 87 37 54 42 47 182 47 51 196 59
leaf_count=3287 666 1123 36 4354 655 38 58 10147 2030 521 1353 682 58 45 20940 333 74 137 1939 5107 631 1330 1503 696 145 2025 705 72 61407 357 45 2770 47 131 38 17832 964 1475 68 760 153 1147 9178 6027 201 94 132 20253 1305 1470 256 930 1681 631 63 35 48 667 93 66 38 38 223 321 124 878 3569 35 67 1327 64 497 9966 5855 202 4245 89 2210 2075 14490 4462 100 251 36 154 52 131 243 625 938 1313 1375 35 887 87 37 54 42 47 182 47 51 196 59
internal_value=3.25625e-05 -0.0286465 3.53813 -0.067982 0.718701 5.89248 7.29439 -0.0955868 0.127213 2.35354 0.534044 1.20944 8.8177 9.42869 -0.113976 -0.0362349 5.57838 0.244762 0.0741434 -0.0408383 0.700621 0.431499 -0.087764 1.4617 2.71626 0.235341 1.03341 0.168428 -0.125702 4.89742 0.693758 0.0502998 0.00153967 0.12689 0.501653 -0.127507 -0.0569643 -0.0918738 -0.0107141 0.638925 0.28442 0.381648 -0.059336 -0.0127059 0.135978 -0.0784199 0.0765796 -0.0939939 0.121818 0.196396 -0.0115914 0.494583 0.278269 0.966428 0.0323741 0.449205 -0.00270488 0.799718 0.101077 0.0904737 0.303698 0.037804 0.0727367 -0.0837951 -0.0556658 0.00197152 0.0312652 0.197537 0.225829 0.182913 0.141556 -0.0865433 -0.116931 -0.0498933 -0.0236581 -0.0235647 0.214454 0.0691425 -0.100693 -0.131461 -0.0690293 0.421563 -0.0104474 0.0577834 -0.0884352 0.186099 0.0228816 0.0853326 -0.111394 -0.05994 0.105315 0.139045 0.00775488 0.356371 0.0414704 0.103052 -0.0403785 0.000542693 0.258882 0.0621596 0.1997 0.145933 0.114383 0.0986051
internal_weight=248731 246733 1998 234398 12335 666 271 205358 29040 1332 8966 3369 139 103 156777 48581 132 9029 20011 47515 3411 5555 48467 1378 666 8847 1991 1066 108310 395 182 13787 2130 6224 2298 104320 30942 46337 16573 2113 3906 3257 29642 16257 959 3990 5583 43765 6055 4941 1997 2260 3753 1286 8204 107 1300 1298 669 316 169 174 5399 3816 2572 6905 8141 133 1537 3404 2744 20750 28423 15033 1705 9352 290 4980 23015 75897 14609 1247 1215 292 3441 184 4485 576 10591 2413 3311 2680 159 2010 3656 85 375 136 2072 250 1374 98 419 1998
internal_count=248731 246733 1998 234398 12335 666 271 205358 29040 1332 8966 3369 139 103 156777 48581 132 9029 20011 47515 3411 5555 48467 1378 666 8847 1991 1066 108310 395 182 13787 2130 6224 2298 104320 30942 46337 16573 2113 3906 3257 29642 16257 959 3990 5583 43765 6055 4941 1997 2260 3753 1286 8204 107 1300 1298 669 316 169 174 5399 3816 2572 6905 8141 133 1537 3404 2744 20750 28423 15033 1705 9352 290 4980 23015 75897 14609 1247 1215 292 3441 184 4485 576 10591 2413 3311 2680 159 2010 3656 85 375 136 2072 250 1374 98 419 1998
is_linear=0
shrinkage=0.0523136


Tree=2
num_leaves=110
num_cat=0
split_feature=80 76 70 76 79 1 51 19 68 76 79 76 76 51 76 51 79 68 76 51 76 76 57 79 76 79 51 39 54 68 51 42 62 39 42 76 79 39 79 51 66 93 76 72 76 72 76 79 57 76 76 31 68 31 68 42 39 79 39 93 42 59 42 74 31 51 76 42 79 51 53 66 76 68 66 31 79 74 31 39 72 66 57 76 31 39 79 42 39 67 42 65 70 79 39 51 62 42 42 80 72 42 42 42 39 42 76 42 42
split_gain=8.29156e+06 2.36873e+06 1.85001e+06 387796 387098 285034 190057 163700 70765.9 56645.8 56428.7 54373.6 47698.1 18682.3 16439 14525 7936.81 7317.18 7269.61 7097.19 5938.73 5391.18 5330.93 5154.14 5037.48 4792.77 4560.8 3329.51 2175.02 1975.92 1885.62 1850.1 1835.51 1808.45 1762.49 1587.72 1316.11 1182.48 1159.48 1090.86 994.863 916.324 888.757 786.246 771.391 748.154 672.578 616.38 544.83 474.18 458.579 393.217 388.194 360.883 335.044 321.441 300.665 224.4 223.963 222.268 207.469 204.444 201.41 189.597 179.319 175.648 165.656 158.861 154.173 153.564 152.886 144.156 138.9 123.525 117.705 115.337 110.549 99.0854 96.8495 95.6589 78.9971 73.9379 72.7855 67.01 62.1642 61.9797 54.4701 53.0752 49.1369 48.4331 43.4277 41.5541 40.9114 40.9113 37.6571 31.8391 28.8013 22.341 21.4978 18.8919 16.5091 15.6719 14.3464 14.2674 5.01531 3.46969 3.08805 2.48216 2.02575
threshold=37.690000000000005 8.7850000000000019 70.850000000000009 20.105000000000004 2.7550000000000003 20002.500000000004 53.580000000000005 0.73765000000000003 1.1095000000000004 48.045000000000009 5.5840000000000005 13.825000000000001 27.460000000000004 4.3025000000000011 0.51580000000000015 11.595000000000001 3.9070000000000005 1.9905000000000002 11.013000000000002 53.580000000000005 17.025000000000002 31.610000000000003 61.765000000000008 7.4040000000000008 1.4065000000000001 24.235000000000003 11.595000000000001 0.26965000000000006 58.63000000000001 2.9615000000000005 17.150000000000002 1.5685000000000002 3.4950000000000006 3.3560000000000003 1.3665000000000003 0.1867 4.5810000000000004 2.4910000000000005 9.0050000000000008 7.0195000000000007 1.6185000000000003 1.2847125000000001 12.307500000000003 6.5525000000000011 0.86635000000000006 15.487000000000002 10.065000000000003 3.3560000000000003 4.4475000000000007 2.0970000000000004 22.010000000000002 0.6966500000000001 1.4085000000000003 0.62210000000000021 2.3840000000000003 3.1895000000000002 0.62280000000000013 5.1275000000000004 0.31300000000000006 2.7138583333333339 0.62330000000000008 42.935000000000009 4.5650000000000004 7.9820000000000011 0.32300000000000001 1.1165000000000003 2.8210000000000002 1.5665000000000002 6.2085000000000008 5.5060000000000011 5.2440000000000007 0.7218500000000001 0.35045000000000009 3.7920000000000003 0.068270000000000011 0.51780000000000015 3.0285000000000006 18.320000000000004 1.4575000000000002 0.41835000000000006 4.2825000000000015 1.8205000000000002 6.0770000000000008 1.0355000000000001 1.3935000000000002 1.5675000000000001 3.6085000000000007 0.36710000000000004 1.0925000000000002 5.4750000000000005 0.34090000000000004 2.8270000000000004 1.1485000000000001 11.435 0.80285000000000017 1.8785000000000001 4.5250000000000012 0.31180000000000008 0.83870000000000011 4.892500000000001 7.0610000000000008 0.18995000000000004 0.28015000000000007 0.63585000000000014 1.2245000000000001 2.2470000000000003 9.6050000000000022 0.34950000000000009 2.3545000000000003
decision_type=2 2 2 2 2 2 2 2 2 2 2 2 2 2 2 2 2 2 2 2 2 2 2 2 2 2 2 2 2 2 2 2 2 2 2 2 2 2 2 2 2 2 2 2 2 2 2 2 2 2 2 2 2 2 2 2 2 2 2 2 2 2 2 2 2 2 2 2 2 2 2 2 2 2 2 2 2 2 2 2 2 2 2 2 2 2 2 2 2 2 2 2 2 2 2 2 2 2 2 2 2 2 2 2 2 2 2 2 2
left_child=1 4 9 11 8 6 -4 -8 14 61 16 18 25 17 27 23 34 40 33 -7 45 -14 -11 43 44 50 39 35 -9 53 -17 36 49 46 47 74 80 42 63 69 52 65 -20 60 56 -13 94 76 73 79 -5 81 75 54 -19 105 71 99 83 91 68 -2 108 -25 -54 92 -51 100 -12 89 96 -16 -37 -31 -1 -10 90 -22 -53 -26 102 -42 -50 -46 -55 -58 97 -78 -60 -15 -6 -43 -29 -40 106 -67 -34 -49 -65 -38 -45 -88 -18 -82 -47 -36 -3 -59 -33
right_child=2 3 5 12 10 19 7 28 13 22 15 20 21 26 24 30 31 29 37 -21 77 -23 -24 38 32 -27 -28 41 -30 48 -32 62 70 -35 55 72 57 -39 93 -41 51 59 -44 67 58 104 -48 86 82 66 -52 78 64 84 -56 -57 85 107 88 -61 -62 -63 -64 98 -66 95 -68 -69 -70 -71 -72 -73 -74 -75 -76 -77 87 -79 -80 -81 103 -83 -84 -85 -86 -87 101 -89 -90 -91 -92 -93 -94 -95 -96 -97 -98 -99 -100 -101 -102 -103 -104 -105 -106 -107 -108 -109 -110
leaf_value=-0.12558244870121985 1.7765994372235421 0.30642783487708447 4.3419042797728329 0.86038031042030938 0.010481991409036389 3.775966358253406 9.1351176340639721 4.6024689495791664 -0.065919431931145897 2.4511168687105438 0.15121123981803167 0.56711528431149982 1.2620116709347249 0.10639491984605749 -0.095625342897970964 0.56706340542028311 0.066928596807426799 -0.021890459939645442 0.42166380732087433 4.8184612471012409 0.70686682120150868 1.4996102383899967 2.95433384176973 0.23953589794557295 -0.046185935363458011 1.0924696644472134 0.65702414688758504 -0.084823003817384335 6.4423682782583889 0.03536932901575307 1.0061645823335499 0.17944101832932799 0.064598836023572928 0.65790070674420176 0.10562865739007495 -0.11336200160392829 0.097673778036086983 0.73944173328026119 0.36071648644262472 0.29461055778846551 -0.045021920615867635 -0.0095333898919817191 0.48845790378718612 0.19397848042328358 -0.080943005059771561 0.63562621466465463 0.37217921927541364 0.037681246817208761 0.12648916652303008 -0.0094050968148507302 0.96238334663166158 -0.010388264895038451 -0.05212616368568615 0.02613109019386076 -0.0045985630291383384 0.25269137030687011 -0.051210049268323968 0.12548145628917501 -0.046546305313498161 0.137894961755786 0.24270984215289876 2.0104499503529203 0.37024833520834616 0.26829824603425489 -0.011719476313850169 -0.055004235961510932 0.050785712349466695 0.28898045770567893 0.17720966923961567 0.18163746717780871 0.21930214546725638 -0.087631072030280144 -0.10541303903674494 0.07706436434657267 -0.11980084316605497 -0.022663997525612493 0.024426983679223618 0.77879380218518279 0.037283654075937596 -0.0027518403772529964 0.082012914085328417 -0.034495473291705159 0.24653109071992432 -0.072476186809915827 0.081470946597635735 0.0054064102719227399 0.050307430265401208 0.057336694519962747 0 0.1809372499300517 0.042260460582511421 0.044363406753417337 -0.05184823976868589 0.4981661828323018 0.39673785563568614 -0.012612504213554466 0.13822619066614925 0.068436646421884281 0.36376027485491502 0.11095937493106328 0.21498570684530457 0.076359979336517891 0.10214165344636286 0.11610405141965582 0.81586498902844862 0.15061655740035967 0.33479521588481975 0.15986956330338578 0.23905553729399973
leaf_weight=62173 430 1306 69 676 2740 72 116 38 11447 532 2006 1208 683 289 16983 91 2843 7031 1357 323 633 679 145 1519 2218 733 59 2985 47 852 52 101 56 52 142 17205 1718 47 136 181 5531 188 1383 1289 9133 814 1342 2077 64 903 613 547 9162 243 5507 80 284 1968 375 36 108 241 35 1531 327 494 143 83 1356 206 59 12166 12332 274 15244 190 3649 715 146 160 1364 3187 34 4962 82 56 2005 150 71 42 127 47 156 40 71 71 47 88 35 1111 804 109 63 81 35 66 661 83 112
leaf_count=62173 430 1306 69 676 2740 72 116 38 11447 532 2006 1208 683 289 16983 91 2843 7031 1357 323 633 679 145 1519 2218 733 59 2985 47 852 52 101 56 52 142 17205 1718 47 136 181 5531 188 1383 1289 9133 814 1342 2077 64 903 613 547 9162 243 5507 80 284 1968 375 36 108 241 35 1531 327 494 143 83 1356 206 59 12166 12332 274 15244 190 3649 715 146 160 1364 3187 34 4962 82 56 2005 150 71 42 127 47 156 40 71 71 47 88 35 1111 804 109 63 81 35 66 661 83 112
internal_value=6.5077e-05 -0.0272304 3.3422 0.659789 -0.0654754 5.59801 6.93941 7.77719 -0.0911953 2.22239 0.11076 0.490192 1.14146 -0.0336007 -0.107686 0.21973 0.0631185 -0.0380372 0.397843 4.64946 0.658454 1.3827 2.56781 0.211181 -0.0819519 0.977623 0.220339 -0.118728 5.75006 -0.00682828 0.740228 0.0983797 -0.0222303 0.346083 0.033331 -0.12048 0.0945085 0.461202 0.263794 0.182379 -0.0524255 -0.071526 0.455799 0.180668 -0.0868096 0.600088 0.340824 0.0299267 0.0565966 -0.0304576 0.910512 -0.0381941 -0.0587503 -0.0128889 -0.0143152 0.160812 -0.0917247 0.113267 -0.076815 0.0205491 0.164587 1.86679 0.239624 0.255773 -0.05076 -0.0783267 -0.000880701 0.206032 0.161865 0.143161 0.148511 -0.0923028 -0.110058 0.0458343 -0.12445 -0.0652364 0.0199107 0.746307 0 -0.043362 0.0733746 -0.0412084 0.174557 -0.0779891 0.0411974 -0.0412575 0.045461 0.0258152 -0.039027 0.117577 0.0119965 0.000596976 -0.083291 0.398578 0.319715 -0.0501346 0.102356 0.0390976 0.271046 0.103046 0.202357 0.0518286 0.06784 0.0842394 0.645264 0.122293 0.316412 0.12714 0.213802
internal_weight=248731 246718 2013 13008 233710 665 270 201 203948 1348 29762 9624 3384 45401 158547 9050 20712 44624 6219 395 3405 1362 677 8907 47616 2022 777 110931 85 14087 143 9479 3586 3432 11233 106954 9231 2787 3261 718 30537 3977 2740 5646 44030 2057 3380 10945 1224 3424 1289 9411 21126 12863 12538 288 29489 4880 14541 271 3470 671 248 3085 9489 3706 1046 2176 3362 537 162 29149 29537 1126 77417 11637 6666 1348 693 2378 4351 8718 98 14095 325 340 4279 3799 446 331 2867 235 3141 176 2038 565 103 2165 1566 2829 2093 2114 2906 1445 849 208 1967 2051 213
internal_count=248731 246718 2013 13008 233710 665 270 201 203948 1348 29762 9624 3384 45401 158547 9050 20712 44624 6219 395 3405 1362 677 8907 47616 2022 777 110931 85 14087 143 9479 3586 3432 11233 106954 9231 2787 3261 718 30537 3977 2740 5646 44030 2057 3380 10945 1224 3424 1289 9411 21126 12863 12538 288 29489 4880 14541 271 3470 671 248 3085 9489 3706 1046 2176 3362 537 162 29149 29537 1126 77417 11637 6666 1348 693 2378 4351 8718 98 14095 325 340 4279 3799 446 331 2867 235 3141 176 2038 565 103 2165 1566 2829 2093 2114 2906 1445 849 208 1967 2051 213
is_linear=0
shrinkage=0.0523136


Tree=3
num_leaves=105
num_cat=0
split_feature=78 85 70 76 85 1 0 74 76 78 85 85 89 3 55 68 58 74 76 74 56 51 1 76 76 85 68 76 85 31 58 60 39 52 48 68 39 76 85 53 51 76 93 85 64 74 53 74 74 70 68 76 60 85 31 76 76 68 53 93 51 39 56 39 52 53 39 58 76 31 68 76 52 31 52 64 56 77 39 76 66 76 70 39 31 76 60 85 51 60 31 51 53 68 64 52 56 93 77 39 39 39 52 73
split_gain=7.46372e+06 2.13937e+06 1.65176e+06 374729 329378 257811 178795 65699.2 54956.3 49112.8 44894.3 43028.3 20891 22570.7 15611.5 14672.5 12426 12225.1 7908.31 6616.32 6166.88 6152.47 7503.4 5831.35 5766.17 4954.06 4865.54 4478.64 3914.73 2975.02 2925.5 2144.34 1909.53 1696.18 1522.59 1377.31 1237.19 1000.75 991.195 908.537 890.1 872.754 814.412 773.833 734.516 726.384 667.013 574.778 508.714 488.554 458.898 391.204 383.704 379.72 336.216 331.691 318.1 263.989 248.896 246.666 230.13 226.647 198.875 197.71 179.492 178.88 144.652 140.479 134.52 129.391 125.546 124.007 122.039 119.182 113.829 112.324 108.423 106.59 105.144 103.241 92.2745 85.5622 83.77 70.1198 67.4824 64.672 56.052 52.6158 42.1769 39.0405 37.6873 37.511 33.3938 28.5002 28.3018 25.0111 23.179 22.7687 16.7553 10.9781 7.8156 6.04333 2.77052 1.91167
threshold=37.890000000000008 9.2050000000000018 70.850000000000009 2.8970000000000007 20.210000000000004 20002.500000000004 10005.500000000002 1.1095000000000004 5.9010000000000007 48.340000000000011 13.942500000000001 27.525000000000002 17.945000000000004 21.500000000000004 59.900000000000006 0.51385000000000014 10.785000000000002 3.5010000000000003 4.2440000000000007 1.9575000000000002 59.850000000000001 53.580000000000005 20016.500000000004 17.025000000000002 11.645000000000001 31.610000000000003 1.3895000000000002 7.5485000000000007 24.540000000000003 0.21955000000000002 18.760000000000002 6.9750000000000005 1.6765000000000001 3.5030000000000006 4.7110000000000012 0.17975000000000002 1.3975000000000002 3.5580000000000003 10.495000000000003 2.9810000000000003 1.9797500000000003 5.0610000000000008 1.3218550000000002 15.895000000000001 0.9073500000000001 1.4955000000000003 9.2320000000000011 2.4190000000000005 5.2440000000000007 6.8490000000000011 2.1850000000000005 18.395000000000003 10.192500000000001 22.105000000000004 1.0580000000000001 8.4425000000000008 13.075000000000001 0.73420000000000007 4.1660000000000013 2.881315277777778 3.2115000000000005 3.2760000000000002 14.333000000000002 0.46740000000000009 5.7630000000000008 1.2015000000000002 3.2080000000000006 3.7280000000000002 6.541500000000001 0.38375000000000009 0.32510000000000006 3.1870000000000007 3.5030000000000006 0.30585000000000007 1.5145000000000002 1.1845000000000001 4.7125000000000012 1.7475000000000003 0.51580000000000015 4.6540000000000008 0.075750000000000026 3.9330000000000003 2.2690000000000006 1.2455000000000003 2.0980000000000003 5.3725000000000014 44.180000000000007 11.655000000000003 1.1695000000000002 2.6380000000000003 0.11110000000000002 4.1540000000000008 5.2440000000000007 4.4390000000000009 3.7350000000000008 2.9715000000000003 1.8785000000000001 2.881315277777778 9.9250000000000025 0.31860000000000005 4.5990000000000011 1.0505000000000002 6.9910000000000005 0.42810000000000009
decision_type=2 2 2 2 2 2 2 2 2 2 2 2 2 2 2 2 2 2 2 2 2 2 2 2 2 2 2 2 2 2 2 2 2 2 2 2 2 2 2 2 2 2 2 2 2 2 2 2 2 2 2 2 2 2 2 2 2 2 2 2 2 2 2 2 2 2 2 2 2 2 2 2 2 2 2 2 2 2 2 2 2 2 2 2 2 2 2 2 2 2 2 2 2 2 2 2 2 2 2 2 2 2 2 2
left_child=1 3 9 7 10 6 12 15 18 86 24 28 -4 -14 -8 29 27 19 32 40 -11 -7 -23 43 38 -13 44 49 53 35 62 48 37 50 56 80 41 63 98 47 45 79 65 -12 57 74 55 82 76 68 69 -25 -33 -6 75 -29 -26 90 94 95 89 -34 -18 71 97 88 -38 -52 -10 -28 -37 -5 -49 -59 -9 -46 93 -47 81 99 -1 -39 -21 -51 -56 -43 -2 -40 -31 -42 -17 -62 -60 -19 -41 -44 -67 -35 -3 -20 -63 -65 -50 -72
right_child=2 4 5 8 11 21 14 17 16 20 23 25 13 -15 -16 26 30 31 36 39 -22 22 -24 51 34 -27 33 46 -30 42 -32 52 61 64 -36 70 66 78 87 58 60 85 59 -45 54 77 -48 72 102 83 67 -53 -54 -55 84 -57 -58 73 92 -61 91 100 -64 101 -66 96 -68 -69 -70 -71 103 -73 -74 -75 -76 -77 -78 -79 -80 -81 -82 -83 -84 -85 -86 -87 -88 -89 -90 -91 -92 -93 -94 -95 -96 -97 -98 -99 -100 -101 -102 -103 -104 -105
leaf_value=-0.11898166326019127 1.7099394079615444 0.30766232074366617 5.9281518427676003 0.016827830826453082 0.82158317610112308 3.5838973248319412 4.0166918592060208 -0.061058489926332171 0.15922237003357265 2.2995037999897407 0.54241576005405234 1.1969726927509456 7.1153052798095349 9.9469465270511126 5.7143709390668169 -0.091639852813577102 0.45201294715270868 0.066179709784464552 0.078669618732524316 -0.023736928748082749 2.7704673751521334 4.7904113274050504 3.748795532764126 0.66760578696360062 0.42865743487002372 1.4231261245597351 -0.042665958139260302 0.23812237420995191 1.0416330562145457 -0.080627679969022356 1.0052432138734726 0.26229918027175764 0.13987090086213189 0.072188926603813444 0.78282972044678123 -0.10817690367944889 0.19432670215689254 0.048556135420148888 0.37371691235608895 0.030027605954621877 -0.01407145300331533 0.11423541721263256 -0.0094923530750293129 0.62451181947736323 -0.073324196207088688 -0.04611329171161678 0.36839078551293619 -0.00035447765292023986 0.16563130944408633 0.20148556884466165 0.0029225399592615526 0.75152754687847323 0.47258276643117553 0.91604781803440527 -0.013388998535809918 0.27587320379232227 0.48453555654849034 -0.081699530108981927 0.088774744901804759 0.14116658402320795 0.041290294517672015 0.20256092967174058 0.63824430281233258 0.055744215709577799 0.21873932384359812 -0.048528365510572845 0.30749525636763031 0.097680851534531751 0.18522101921684736 -0.0042020290382590204 -0.10252808438863487 0.031191318283631208 0.082458862945569741 -0.040459338652101384 -0.040134228166774998 -0.054785564206894954 0.13162089717853065 -0.035524672985997659 0.095217096759690964 0.097852268124659789 -0.11352617513799876 0.063478150211469395 -0.012373019381817583 0.26984304492621453 0.066950361440931722 0.13229979354746144 1.9428784477361627 0.45015635779909874 -0.050259145546463636 0.018724398532560294 -0.079903432091983334 0.12028744550129906 0.1743763805887073 0.10789958165618063 0.071920466456358037 0.036369678078624595 -0.011151388308647122 0.12610644852679512 0.33633898802063966 0.10797866757199155 0.3091709929891282 0.082699158123440711 0.2282126629011311 -0.097977494628717729
leaf_weight=62939 476 1204 36 3412 657 72 58 14088 2066 480 1350 682 58 45 73 15888 163 398 2057 5967 187 246 77 635 1319 696 1960 1978 660 3378 40 142 167 108 42 15668 163 2855 1336 635 809 1357 155 674 9439 10362 164 6547 146 1629 715 752 38 674 132 1365 740 15993 68 39 61 55 45 246 46 403 64 44 1155 288 8589 3394 47 222 834 1138 135 3849 202 2168 13636 2034 2682 81 34 2011 190 111 185 106 1255 35 34 83 57 39 71 66 803 94 36 103 54 5687
leaf_count=62939 476 1204 36 3412 657 72 58 14088 2066 480 1350 682 58 45 73 15888 163 398 2057 5967 187 246 77 635 1319 696 1960 1978 660 3378 40 142 167 108 42 15668 163 2855 1336 635 809 1357 155 674 9439 10362 164 6547 146 1629 715 752 38 674 132 1365 740 15993 68 39 61 55 45 246 46 403 64 44 1155 288 8589 3394 47 222 834 1138 135 3849 202 2168 13636 2034 2682 81 34 2011 190 111 185 106 1255 35 34 83 57 39 71 66 803 94 36 103 54 5687
internal_value=9.16106e-05 -0.025708 3.18296 -0.0610488 0.645741 5.31056 6.58617 -0.0859544 0.114617 2.11487 0.479799 1.08674 7.94946 8.52442 5.03783 -0.10212 0.22483 -0.0317668 0.0677021 -0.0356841 2.43996 4.40858 4.56798 0.629416 0.38769 1.3133 -0.077716 0.213952 0.928634 -0.112542 0.589274 0.14934 0.0417608 -0.0156118 0.456839 -0.114262 0.10864 0.0387515 0.345317 -0.00851829 -0.0501277 0.104976 -0.0695324 0.570468 -0.0822543 -0.0518024 0.259399 -0.0113739 0.112332 0.18149 -0.0259601 0.714308 0.312734 0.87092 -0.0702016 0.253763 0.44931 -0.0861247 0.0459123 0.0246625 -0.00164033 0.182311 0.499196 0.0260667 0.123762 -0.0750338 0.22967 0.0089565 0.168726 -0.0378455 -0.104648 0.0240305 0.000227464 -0.0811538 -0.0599096 -0.0713616 0.0875912 -0.0432666 0.0565174 0.0891324 -0.118016 0.0548337 -0.0202426 0.205173 0.00235676 0.125161 1.78248 0.380362 -0.0791431 -0.00999602 -0.0908033 0.0742738 0.12232 0.0742668 0.0340012 0 -0.0434695 0.0951347 0.319578 0.0801554 0.253008 0.0647699 0.185773 -0.100745
internal_weight=248731 246733 1998 234398 12335 665 270 205294 29104 1333 8966 3369 139 103 131 158117 8686 47177 20418 46181 667 395 323 3411 5555 1378 47328 8438 1991 110789 248 996 12504 3227 2101 106519 7914 12246 3454 16037 30144 7687 4270 2024 44101 29133 3507 15243 816 4931 3007 1387 180 1331 10743 3343 2059 33358 794 233 1011 258 208 7155 220 4037 227 759 3221 2248 29944 6806 6594 16215 14922 10577 616 14211 5091 4319 76575 4889 8649 1710 166 3368 666 1447 3563 915 17143 96 102 481 692 194 474 174 2007 2151 91 349 200 14276
internal_count=248731 246733 1998 234398 12335 665 270 205294 29104 1333 8966 3369 139 103 131 158117 8686 47177 20418 46181 667 395 323 3411 5555 1378 47328 8438 1991 110789 248 996 12504 3227 2101 106519 7914 12246 3454 16037 30144 7687 4270 2024 44101 29133 3507 15243 816 4931 3007 1387 180 1331 10743 3343 2059 33358 794 233 1011 258 208 7155 220 4037 227 759 3221 2248 29944 6806 6594 16215 14922 10577 616 14211 5091 4319 76575 4889 8649 1710 166 3368 666 1447 3563 915 17143 96 102 481 692 194 474 174 2007 2151 91 349 200 14276
is_linear=0
shrinkage=0.0523136


Tree=4
num_leaves=90
num_cat=0
split_feature=78 4 4 4 79 1 0 4 78 4 84 79 86 14 55 55 74 4 4 56 4 84 79 4 4 60 84 64 4 4 83 84 84 77 4 84 4 64 83 75 56 74 4 4 67 4 70 4 4 83 4 84 83 4 67 62 82 61 75 4 82 4 83 4 82 57 4 75 69 83 68 84 4 83 84 79 84 75 82 78 75 75 4 4 55 78 84 84 4
split_gain=6.71614e+06 1.9594e+06 1.50914e+06 328531 315002 216379 158475 52271.2 49074.9 46836.7 42399.6 42245.1 17578.2 38555.2 17038.9 13909.7 7258.71 7139.27 6814.51 6601.05 6587.91 5601.57 5356.78 4866.55 3697.06 2204.65 1591.62 1490.74 1227.57 834.097 833.329 799.081 715.732 663.428 636.668 603.193 554.173 531.837 526.707 492.113 595.33 476.377 411.408 216.705 143.329 121.327 117.022 114.688 105.032 99.6737 86.5634 84.7984 82.5327 78.1432 71.8288 61.2018 126.266 55.5204 54.942 54.483 51.7563 37.737 33.5481 30.3778 26.3816 88.6653 23.8328 21.3162 19.4852 17.8812 16.21 15.3292 13.0384 12.8293 11.8386 9.62502 9.47104 7.87331 7.53915 7.34002 3.85561 3.19167 3.0397 2.7718 2.25595 1.04517 0.919855 0.201212 4.47841e-06
threshold=37.890000000000008 9.2550000000000008 75.030000000000015 2.8015000000000003 19.790000000000003 20002.500000000004 10005.500000000002 0.96715000000000007 48.340000000000011 5.642500000000001 13.838000000000003 27.090000000000003 131.55000000000004 2.4170000000000003 59.900000000000006 59.900000000000006 11.455000000000002 0.38785000000000008 1.8435000000000004 59.850000000000001 4.096000000000001 17.055000000000003 31.290000000000003 7.237000000000001 23.615000000000006 14.995000000000003 22.010000000000002 10.705000000000002 1.3765000000000003 3.4390000000000005 4.7560000000000011 8.1620000000000008 9.6050000000000022 0.12750000000000003 2.3170000000000006 14.802500000000002 0.65565000000000018 12.692500000000001 6.291500000000001 8.3650000000000002 5.0840000000000005 12.8725 40.545000000000009 33.890000000000008 4.4425000000000017 1.6135000000000004 7.6690000000000014 1.1935000000000002 3.1260000000000003 3.7740000000000005 2.5595000000000003 11.018000000000002 5.1820000000000013 2.0515000000000003 6.0325000000000015 6.5920000000000014 6.541500000000001 4.4785000000000013 0.25865000000000005 0.81770000000000009 3.9485000000000006 0.54865000000000019 6.7440000000000007 51.265000000000008 5.7215000000000007 4.3025000000000011 4.892500000000001 9.9425000000000008 3.6085000000000007 3.2115000000000005 0.033450000000000008 2.9505000000000003 1.5305000000000002 2.1850000000000005 2.6850000000000005 21.740000000000006 2.4595000000000007 2.3210000000000002 1.7297500000000003 3.5010000000000003 2.6280000000000006 2.6280000000000006 1.0645000000000002 8.5950000000000006 2.4740000000000006 2.1415000000000002 1.9565000000000003 2.7490000000000006 1.2955000000000003
decision_type=2 2 2 2 2 2 2 2 2 2 2 2 2 2 2 2 2 2 2 2 2 2 2 2 2 2 2 2 2 2 2 2 2 2 2 2 2 2 2 2 2 2 2 2 2 2 2 2 2 2 2 2 2 2 2 2 2 2 2 2 2 2 2 2 2 2 2 2 2 2 2 2 2 2 2 2 2 2 2 2 2 2 2 2 2 2 2 2 2
left_child=1 3 8 7 10 6 12 17 42 20 16 24 -4 -14 -8 -7 27 33 28 63 29 35 -13 38 75 41 -23 32 47 48 44 46 39 70 53 -12 61 -29 54 40 -3 -18 -2 -24 57 72 55 82 71 68 76 -34 -32 86 64 56 -25 60 -35 -38 -22 -19 -40 -10 65 -11 -46 -41 79 80 -1 77 -30 85 81 -6 84 -5 -47 -31 -50 -52 -9 -33 -36 -55 -20 -76 -49
right_child=2 4 5 9 11 15 14 18 19 23 21 22 13 -15 -16 -17 25 36 34 -21 30 26 43 31 -26 -27 -28 37 45 49 52 83 51 58 50 -37 59 -39 62 67 -42 -43 -44 -45 66 78 -48 88 69 -51 74 -53 -54 73 -56 -57 -58 -59 -60 -61 -62 -63 -64 -65 -66 -67 -68 -69 -70 -71 -72 -73 -74 -75 87 -77 -78 -79 -80 -81 -82 -83 -84 -85 -86 -87 -88 -89 -90
leaf_value=-0.11296148129685582 1.4909297662455907 0.1302592876479009 5.9708976011834354 0.00037018693515979855 0.75975261295271612 2.9457516662387153 3.7724156305570986 -0.069717161480672432 1.8863550947695367 0.090276365719235849 0.48666826708666139 1.1178508792424304 9.8954166711840745 6.6548772536943419 5.4738564083409367 4.3774964391024733 0.40037090813617554 -0.093429896616817859 -0.03303675247392885 2.644930496255574 0.050664882806045808 0.66557052000282824 1.2365455165154973 0.14398642948338242 0.94719101755558799 0.68505683649407723 1.0069068085234356 0.36212315520946831 -0.051832196827730041 0.031721199846245447 0.097140411138515667 0.23877807579255833 0.31573911664171356 -0.10502221812043223 -0.012965736313389624 0.5602631839760126 -0.081752696741527048 0.53091243023900914 0.16227762119737382 0.28271704791814145 0.26532332409484066 0.45926708534436061 1.7442375771068206 1.4014766606902131 0.081619068818759896 -0.042391279703144782 0.22363348513373466 -0.060664041440909804 0.014541346909583624 0.053220718214787147 -0.0040884490275345034 0.38057202383219269 0.11496986338269337 -0.025054641492009276 0.15217143142600914 0.20539541103525741 0.20297019713095665 0.091645789012087558 -0.099363578351053097 -0.076156854722481307 0.06815561912856595 -0.087639215178608731 0.18160590942918806 2.2593966190904609 0.13796702475022671 0.13287617934050164 0.10329787034417849 0.34997464503703396 0.044326957538588729 0.027412487058971671 -0.10948993846161453 0.014989121723864175 -0.046955938933449397 -0.017848460059561547 0.0019935140614250201 0.83768573658767276 -0.0073960353434066777 0.0093851922219839613 -0.037656105580016183 0.039929604519192863 0.021446682822881875 0 -0.065755357245322776 0.2618483183362233 -0.0055850031497932193 -0.020289027452113459 -0.028776751615296539 0.0045555564560890984 -0.056423159034773698
leaf_weight=57719 155 160 48 378 655 40 57 5691 96 262 681 694 39 52 72 334 1389 11520 2796 213 771 1234 287 267 938 99 48 958 5586 1461 1955 803 1601 15866 3696 1385 13423 70 1275 752 257 870 510 469 1520 5768 1072 4713 573 2126 1670 151 1772 2632 978 1165 289 268 11886 11857 2376 8211 1173 382 1275 555 299 87 1314 1950 12063 1668 5002 1887 646 470 1633 1656 2796 922 1577 673 6544 1132 234 855 1613 602 3064
leaf_count=57719 155 160 48 378 655 40 57 5691 96 262 681 694 39 52 72 334 1389 11520 2796 213 771 1234 287 267 938 99 48 958 5586 1461 1955 803 1601 15866 3696 1385 13423 70 1275 752 257 870 510 469 1520 5768 1072 4713 573 2126 1670 151 1772 2632 978 1165 289 268 11886 11857 2376 8211 1173 382 1275 555 299 87 1314 1950 12063 1668 5002 1887 646 470 1633 1656 2796 922 1577 673 6544 1132 234 855 1613 602 3064
internal_value=0.000120164 -0.0243533 3.01939 -0.0594823 0.594318 5.10685 6.27182 -0.0845852 2.0247 0.0939177 0.440974 1.01899 7.55174 8.23337 4.79449 4.24184 0.361688 -0.101633 -0.0427534 2.34025 0.0518116 0.592012 1.23695 0.186685 0.864616 0.435206 0.68011 0.318482 -0.0552137 0.0288672 0.0866586 0.225791 0.298896 -0.109597 -0.0169691 0.536618 -0.0843675 0.374866 0.153065 0.26617 0.214922 0.423547 1.69029 1.34267 0.0729957 -0.0456949 0.206931 -0.0643068 0.01763 0.0438738 -0.00701729 0.321892 0.105736 -0.0262549 0.13797 0.196144 0.175677 0.0662671 -0.102614 -0.0791433 0.0639769 -0.0910408 0.171774 2.19331 0.131082 0.119747 0.085417 0.290792 0.0384121 0.0234476 -0.112368 0.0111175 -0.0495591 -0.0218647 -0.000618858 0.793972 -0.0111058 0.00782125 -0.0408807 0.035022 0.0197254 -0.00286244 -0.0676277 0.252652 -0.012586 -0.0239625 -0.0315428 0.00341292 -0.0590371
internal_weight=248731 246733 1998 233478 13255 642 268 200646 1356 32832 9742 3513 139 91 129 374 6394 142545 58101 691 22586 3348 1450 10246 2063 2358 1282 4036 39164 13625 8961 4728 3008 97534 18937 2066 45011 1028 5518 1256 417 2259 665 756 5234 19152 2793 20012 7802 5823 9154 1752 3727 9783 3070 1721 556 3415 27752 25280 3147 19731 2448 478 2092 817 1819 839 3697 4100 69782 3702 10588 5374 3591 1125 5563 2034 8564 2383 2150 2343 12235 1935 3930 3487 4409 1248 7777
internal_count=248731 246733 1998 233478 13255 642 268 200646 1356 32832 9742 3513 139 91 129 374 6394 142545 58101 691 22586 3348 1450 10246 2063 2358 1282 4036 39164 13625 8961 4728 3008 97534 18937 2066 45011 1028 5518 1256 417 2259 665 756 5234 19152 2793 20012 7802 5823 9154 1752 3727 9783 3070 1721 556 3415 27752 25280 3147 19731 2448 478 2092 817 1819 839 3697 4100 69782 3702 10588 5374 3591 1125 5563 2034 8564 2383 2150 2343 12235 1935 3930 3487 4409 1248 7777
is_linear=0
shrinkage=0.0523136


Tree=5
num_leaves=92
num_cat=0
split_feature=85 4 4 79 4 1 0 4 4 85 4 79 89 3 54 55 74 4 4 4 85 4 59 1 79 4 76 85 74 62 4 4 73 76 84 81 73 55 85 53 4 66 4 4 4 4 73 81 4 81 81 74 4 4 4 4 62 79 69 59 76 4 85 4 84 73 54 73 84 4 59 85 85 4 84 85 73 81 81 60 85 4 81 81 62 79 73 4 56 73 4
split_gain=6.04402e+06 1.75103e+06 1.37068e+06 295206 278770 197922 143413 45647.7 44316.1 43651.3 39889.7 37085.6 17462.7 21713 15441.6 13260.8 7715.09 6053.45 5606.76 5052.77 4952.55 4708.92 4639.26 4544.61 4469.86 3236.78 1814.79 1746.13 1489.61 1383.16 1085.27 739.028 730.487 673.571 612.664 611.697 610.322 604.693 607.095 616.201 549.315 533.253 515.605 506.249 329.427 107.337 105.519 104.765 88.4152 80.9044 77.001 76.42 67.9158 63.8279 62.6161 57.4776 47.5365 128.42 41.5006 41.466 54.2651 39.7387 39.5804 35.6683 22.9894 19.1128 44.4616 14.5289 16.7072 14.45 13.2561 13.055 12.9828 12.1127 10.2333 9.63402 8.61657 6.39125 5.93966 5.4809 4.84781 4.82251 3.85376 3.75501 3.69432 3.02723 2.44364 1.87073 1.69664 0.45277 0.445684
threshold=37.640000000000008 8.8725000000000005 75.030000000000015 19.790000000000003 2.6870000000000007 20002.500000000004 10005.500000000002 51.265000000000008 0.93380000000000007 13.942500000000001 5.3140000000000009 27.090000000000003 17.945000000000004 21.500000000000004 58.63000000000001 59.900000000000006 11.455000000000002 0.37050000000000005 1.7795000000000003 3.8430000000000004 17.150000000000002 6.9910000000000005 63.560000000000009 20005.500000000004 31.290000000000003 23.615000000000006 10.065000000000003 22.105000000000004 14.588000000000003 44.680000000000007 1.3295000000000001 4.5215000000000005 47.760000000000005 12.307500000000003 6.1150000000000011 7.846000000000001 15.588000000000003 10.263000000000002 8.4350000000000005 6.0060000000000011 2.2310000000000003 0.12288 3.2115000000000005 0.64280000000000015 12.635000000000003 1.5635000000000001 5.7320000000000011 4.892500000000001 1.1505000000000003 4.1275000000000004 3.4870000000000005 7.4280000000000008 33.890000000000008 3.0010000000000003 2.0190000000000006 2.4580000000000006 6.3270000000000008 6.2085000000000008 0.23760000000000001 5.7825000000000015 4.9160000000000013 0.80210000000000015 9.5880000000000027 0.49865000000000009 6.5450000000000008 4.3270000000000008 3.6985000000000006 3.9810000000000003 3.4405000000000006 10.982000000000001 3.3990000000000005 2.8040000000000007 18.510000000000002 1.6625000000000003 3.0910000000000006 2.5770000000000004 0.029825000000000001 2.3170000000000006 3.0910000000000006 2.5890000000000004 2.1140000000000003 1.4465000000000001 1.8795000000000002 3.6470000000000007 2.3250000000000006 21.740000000000006 2.5385000000000004 1.0185000000000002 2.3330000000000006 2.6295000000000006 4.3140000000000009
decision_type=2 2 2 2 2 2 2 2 2 2 2 2 2 2 2 2 2 2 2 2 2 2 2 2 2 2 2 2 2 2 2 2 2 2 2 2 2 2 2 2 2 2 2 2 2 2 2 2 2 2 2 2 2 2 2 2 2 2 2 2 2 2 2 2 2 2 2 2 2 2 2 2 2 2 2 2 2 2 2 2 2 2 2 2 2 2 2 2 2 2 2
left_child=1 4 7 9 8 6 12 29 17 16 19 25 -4 -14 -8 -7 26 41 30 42 36 34 32 -17 -13 85 37 72 44 -2 48 49 -9 69 46 51 -11 38 39 -3 54 76 53 63 -18 81 59 65 87 67 70 56 -26 71 82 77 57 -23 -43 60 -12 -45 -40 -19 -36 66 -33 68 -21 -28 74 84 -22 -47 -44 86 -1 88 79 -55 -56 -32 -20 -52 -6 -5 -57 -10 -42 -77 -51
right_child=2 3 5 11 10 15 14 22 18 20 21 24 13 -15 -16 23 28 43 40 31 27 35 -24 -25 52 -27 33 -29 -30 -31 45 47 -34 -35 64 -37 -38 -39 62 -41 55 58 50 61 -46 73 -48 -49 -50 90 83 -53 -54 78 80 75 -58 -59 -60 -61 -62 -63 -64 -65 -66 -67 -68 -69 -70 -71 -72 -73 -74 -75 -76 89 -78 -79 -80 -81 -82 -83 -84 -85 -86 -87 -88 -89 -90 -91 -92
leaf_value=-0.10707306999206759 1.5363411221242522 0.13162501897609602 5.3410995740817198 0.7201311027359566 -0.00077689069249726951 2.7862800548272828 3.632111856832795 1.5894498146521707 -0.067992068965971625 0.48259459652985992 0.090029635743823763 1.0602134772046425 6.3932274355080683 9.0184175837405096 5.2423767645087898 4.7051012390638451 0.37419150308273241 -0.089951121415333679 -0.033740180439466839 0.037327980040676882 0.60332749960376986 0.12250608167932459 2.5759992979906099 3.8728987614746946 1.1723158401690148 0.89645666416774317 0.31251351683548817 0.9776309037361558 0.59804866669183299 1.7815232701419823 -0.051533330464506096 0.048967746386261723 2.1651289750872138 0.46557397891438507 0.14574460231735259 0.2264730877490253 0.55250540996301956 0.36977314360113461 0.26183203403351546 0.25167900553861483 -0.016806412779653352 -0.10005342724472559 0.017671559685675697 -0.077901987740046974 0.42390047085996396 -0.043162769652613571 0.1325772293797621 0.096609146149212011 -0.057837051090425855 0.060920661004829089 0.035332681622463002 0.20059588222362296 1.3236170082185508 0.0076751065030963433 -0.024809390349673041 -0.0079797464047128425 0.18518232680101085 0.18283366873522039 -0.094930981283832663 0.14176606355444932 0.11437153462040107 -0.072886961731466027 0.29027981938365943 -0.08445616492148425 0.16258784168277687 0.082348466346155294 0.081216631222450805 0.05736737915469823 0.050985242003915042 0.34243173422869211 0.033965577260020294 0.0092461403726609732 0.66476502228833212 -0.038598340594518818 0.026602427290830916 -0.0023461930432751191 -0.10399158152128926 -0.011553620862454195 0.01899195079946257 0.015710330920556015 -0.020048098145885134 -0.047216895065025868 -0.029163256515619816 0.04224351482498577 0.0041806275271708904 0.79405354959170316 -0.0034683365436845429 -0.063941281547362713 -0.01043414989265177 0 0.069193821803510844
leaf_weight=56969 497 211 36 655 487 41 61 38 4009 1196 478 695 58 45 68 100 1106 9208 2861 531 649 226 156 234 287 936 1134 50 122 243 3883 271 440 117 1319 1954 851 164 1281 327 1995 14388 654 13371 1170 5526 1408 1896 8450 1172 1272 1073 450 469 2764 2241 1195 299 12643 192 1686 11311 744 11073 1219 1950 356 1032 1350 734 709 1798 558 5025 2170 890 12022 2613 1576 1104 1781 4808 2301 1294 1375 470 621 7546 353 545 1095
leaf_count=56969 497 211 36 655 487 41 61 38 4009 1196 478 695 58 45 68 100 1106 9208 2861 531 649 226 156 234 287 936 1134 50 122 243 3883 271 440 117 1319 1954 851 164 1281 327 1995 14388 654 13371 1170 5526 1408 1896 8450 1172 1272 1073 450 469 2764 2241 1195 299 12643 192 1686 11311 744 11073 1219 1950 356 1032 1350 734 709 1798 558 5025 2170 890 12022 2613 1576 1104 1781 4808 2301 1294 1375 470 621 7546 353 545 1095
internal_value=0.00014324 -0.0231842 2.85073 0.546995 -0.05725 4.84227 5.9565 1.91275 -0.0807649 0.407229 0.082106 0.963146 7.17396 7.69579 4.55132 4.01734 0.333959 -0.0966215 -0.0423557 0.0422023 0.564528 0.163543 2.24562 4.14989 1.16918 0.818865 0.294614 0.648447 0.410861 1.62185 -0.0536445 0.0708369 2.12681 0.333635 0.133709 0.203027 0.512291 0.2659 0.258877 0.205685 -0.0189791 -0.10405 0.0207633 -0.080748 0.400201 -0.0447221 0.119861 0.086532 -0.06221 0.0572122 0.0318277 0.18639 1.26841 0.0108134 -0.0276858 -0.00982189 0.177171 0.157864 -0.0976732 0.112058 0.109188 -0.075619 0.272677 -0.0869708 0.154047 0.0789607 0.0678369 0.0509762 0.0472929 0.324751 0.0265828 0.00601316 0.632993 -0.0410179 0.0246273 -0.00530399 -0.106542 -0.0136864 0.0163143 0.013469 -0.0230025 -0.0491827 -0.0317555 0.0389353 0.00276513 0.752599 -0.00708178 -0.0653778 -0.0159531 -0.00159836 0.0650737
internal_weight=248731 246714 2017 13907 232807 643 268 1374 199197 10414 33610 3493 139 103 129 375 7110 140985 58212 22561 3304 11049 634 334 1432 2061 4712 1257 2398 740 39247 9653 478 1985 6302 4747 2047 2727 2563 538 18965 96022 12908 44963 2276 19242 3764 4473 20005 5180 6099 2793 737 6809 9707 9258 1720 525 27031 2356 2164 24682 2025 20281 2538 2577 627 2913 1881 1868 3533 3660 1207 10551 2824 4297 68991 4961 3149 1573 4545 8691 5162 2566 1862 1125 2862 11555 2348 1435 2267
internal_count=248731 246714 2017 13907 232807 643 268 1374 199197 10414 33610 3493 139 103 129 375 7110 140985 58212 22561 3304 11049 634 334 1432 2061 4712 1257 2398 740 39247 9653 478 1985 6302 4747 2047 2727 2563 538 18965 96022 12908 44963 2276 19242 3764 4473 20005 5180 6099 2793 737 6809 9707 9258 1720 525 27031 2356 2164 24682 2025 20281 2538 2577 627 2913 1881 1868 3533 3660 1207 10551 2824 4297 68991 4961 3149 1573 4545 8691 5162 2566 1862 1125 2862 11555 2348 1435 2267
is_linear=0
shrinkage=0.0523136


Tree=6
num_leaves=89
num_cat=0
split_feature=85 4 4 4 78 1 51 0 4 85 85 4 78 51 1 72 56 4 4 4 4 54 3 78 85 85 75 54 4 52 85 4 83 75 4 82 51 4 68 85 69 4 72 4 78 76 81 4 66 4 4 4 83 4 74 51 54 81 83 4 75 4 66 83 82 70 52 71 4 75 65 83 81 81 4 85 73 66 54 85 4 65 85 56 75 4 81 85
split_gain=5.43916e+06 1.57329e+06 1.23647e+06 265110 251522 179498 154192 123910 42157.4 41126.5 37939.6 37815.1 30308.4 13694.5 9727.34 8334.79 5857.27 5632.44 5590.26 4641.77 4599.74 4317.54 4216.3 3385.97 2893.36 2876.82 1657.78 1559.54 981.658 687.445 655.755 625.328 577.848 577.314 575.077 548.396 633.191 539.411 535.221 524.355 522.943 450.264 437.904 423.208 348.6 107.523 106.554 96.0353 92.4842 85.0666 84.6505 84.5178 70.0296 60.0047 51.8562 131.644 48.9771 75.25 48.6227 43.2105 31.9403 25.6804 24.8746 24.4031 23.4777 20.6502 66.9424 18.9031 18.6616 18.4334 16.4738 13.7891 13.0115 11.6572 10.9534 9.83779 8.00676 7.04682 5.73189 5.23971 4.06631 3.54778 3.40883 3.27502 2.92782 2.30404 0.364351 0.191539
threshold=37.640000000000008 9.2550000000000008 75.030000000000015 2.8015000000000003 20.305000000000003 20002.500000000004 53.580000000000005 10005.500000000002 0.94715000000000005 48.045000000000009 14.865 5.4910000000000005 27.790000000000003 53.580000000000005 20014.500000000004 11.947500000000002 59.850000000000001 1.8155000000000003 0.38785000000000008 3.9950000000000006 7.237000000000001 58.63000000000001 9.5000000000000018 31.850000000000005 24.540000000000003 18.510000000000002 10.377500000000003 16.510000000000002 1.3542500000000002 10.487000000000002 8.1550000000000029 4.6620000000000008 6.291500000000001 12.912000000000001 2.2630000000000003 8.4750000000000032 5.5060000000000011 3.4390000000000005 0.14335000000000003 22.105000000000004 16.535000000000004 40.545000000000009 13.465000000000002 0.67710000000000015 22.165000000000003 5.9010000000000007 5.0325000000000015 1.5935000000000004 7.7085000000000008 1.1805000000000001 3.1260000000000003 2.5595000000000003 4.2480000000000011 2.0515000000000003 6.6185000000000009 3.8915000000000002 5.8615000000000013 5.0325000000000015 3.6890000000000005 0.56225000000000014 0.27235000000000004 0.8317500000000001 0.044020000000000011 6.7440000000000007 10.065000000000003 3.3560000000000003 2.3915000000000002 4.8340000000000005 51.265000000000008 10.925000000000002 4.1660000000000013 3.2115000000000005 2.9505000000000003 2.4190000000000005 1.4685000000000004 2.6830000000000003 2.4250000000000003 3.5170000000000003 2.9680000000000004 2.1570000000000005 1.6935000000000002 2.6315000000000004 1.9225000000000001 2.3605000000000005 2.5890000000000004 1.0535000000000003 2.5090000000000003 2.7490000000000006
decision_type=2 2 2 2 2 2 2 2 2 2 2 2 2 2 2 2 2 2 2 2 2 2 2 2 2 2 2 2 2 2 2 2 2 2 2 2 2 2 2 2 2 2 2 2 2 2 2 2 2 2 2 2 2 2 2 2 2 2 2 2 2 2 2 2 2 2 2 2 2 2 2 2 2 2 2 2 2 2 2 2 2 2 2 2 2 2 2 2
left_child=1 3 9 8 10 6 -4 -8 18 41 15 19 24 -7 22 26 68 28 38 37 32 -9 -15 -14 44 40 29 42 49 35 48 52 45 69 53 36 -3 50 62 -27 -12 -2 -17 59 -6 56 67 74 54 85 72 73 65 82 55 -22 57 -13 77 -20 -40 -45 -1 -34 -37 66 -21 70 -11 -28 -33 81 76 83 -30 84 -5 78 -39 -55 -49 -52 -19 -36 -53 -10 -75 -77
right_child=2 4 5 11 12 13 7 21 17 16 25 20 23 14 -16 27 -18 34 43 31 30 -23 -24 -25 -26 39 33 -29 47 -31 -32 46 63 -35 51 64 -38 58 60 -41 -42 -43 -44 61 -46 -47 -48 80 -50 -51 71 75 -54 79 -56 -57 -58 -59 -60 -61 -62 -63 -64 -65 -66 -67 -68 -69 -70 -71 -72 -73 -74 86 -76 87 -78 -79 -80 -81 -82 -83 -84 -85 -86 -87 -88 -89
leaf_value=-0.10141374069160974 1.3389042979411563 0.1272532612335108 3.3132618954094628 0 0.70037691940386115 2.9249358571902424 7.5914476191849296 3.6996610479436218 -0.063173979791939644 1.7075023433506022 0.49855938112221637 0.085742958569660063 1.0265252239550318 3.1607354451994176 3.2908404831593523 0.383050584860476 2.3818031349198683 -0.03069338902085177 -0.083763564314036587 0.0071529431187398471 0.1017460643627527 5.3014234117277388 4.4402362748233157 1.2189462353507037 0.89058728133915643 0.63628590740106428 0.30321333830449854 0.65831838191576553 -0.048073411835997164 0.36765977718671378 0.22716142131578262 0.063946067004832338 0.14577239595982924 0.4576296648502215 -0.013417885510810867 0.26226214351064359 0.25472472144089509 0.024910809855389165 -0.093749937266577876 0.86742535759222417 0.56576564488418102 1.5620489667705748 0.43714621752044935 -0.072785258630130106 0.7864779357789915 0.13327067725784578 0.097728130979367042 -0.039061762832119526 0.20210329983358963 -0.053755916654721451 0.013121778035318192 -0.004731192647320968 0.067247164805418772 -0.022151586244483757 0.18358719620229022 0.17369839289176112 0.13548617850815653 0.11451031596788093 0.044126922963601531 -0.078070599655654549 -0.08889268884571834 -0.068300234174246133 -0.097854639848278413 0.16311975417521751 0.29178392390920044 0.055910234712355927 0.052388287060469364 0.087503511986701754 2.0281635465817662 0.33338861051962831 0.07980605409928633 0.02459441449169289 0.013562588006872172 -0.0085276957473705024 -0.043400364309239638 0.0017509894961052193 0.0085426280272779161 0.037025527626532342 0.033527480682769159 -0.017396900095668133 -0.035255667574843094 0.019504145143405493 -0.026313739617537413 -0.008986915521070964 -0.00075386239397256724 -0.059500369544424392 -0.0057368111961010109 0.0042131385712391774
leaf_weight=59179 177 198 67 394 655 72 114 39 5726 108 1117 427 680 35 90 1394 213 3042 12295 132 126 48 178 650 681 737 695 76 3964 189 1942 524 1275 112 3117 1399 282 736 15059 50 888 492 1010 13426 646 1436 1859 4830 961 7724 632 1034 1999 2837 1371 328 336 1553 2163 8964 10445 9535 12851 1173 527 1948 395 1040 384 1250 1112 1950 1664 1256 6652 647 1644 1249 945 1724 3763 1518 2111 991 1312 6552 1012 598
leaf_count=59179 177 198 67 394 655 72 114 39 5726 108 1117 427 680 35 90 1394 213 3042 12295 132 126 48 178 650 681 737 695 76 3964 189 1942 524 1275 112 3117 1399 282 736 15059 50 888 492 1010 13426 646 1436 1859 4830 961 7724 632 1034 1999 2837 1371 328 336 1553 2163 8964 10445 9535 12851 1173 527 1948 395 1040 384 1250 1112 1950 1664 1256 6652 647 1644 1249 945 1724 3763 1518 2111 991 1312 6552 1012 598
internal_value=0.000165469 -0.0219639 2.70436 -0.0534207 0.532828 4.59589 5.65683 6.3956 -0.0759709 1.81348 0.400901 0.0843792 0.927571 3.81047 3.99911 0.33664 2.0982 -0.0387596 -0.091428 0.044702 0.163864 4.68753 4.26314 1.12246 0.795655 0.564605 0.29488 0.414576 -0.0502237 0.265976 0.202867 0.0735227 0.134029 0.330935 -0.015905 0.25759 0.203369 0.0245408 -0.0984334 0.653467 0.528983 1.50761 0.406223 -0.0759676 0.74447 0.120663 0.0873419 -0.0417263 0.185698 -0.0583681 0.0158402 -0.00704349 0.0594319 -0.024971 0.17672 0.154764 0.112639 0.108514 0.0378138 -0.0813813 -0.0917767 -0.0709387 -0.100785 0.154305 0.270757 0.0529794 0.0415504 0.0799742 1.9656 0.323051 0.0749485 0.021068 0.00998185 -0.0106599 -0.0451752 -0.000558062 0.00693839 0.0330498 0.029922 -0.0204118 -0.0374297 0.0177458 -0.0289536 -0.0124082 -0.00260429 -0.061242 -0.00738676 0.00311713
internal_weight=248731 246714 2017 233478 13236 643 268 201 200646 1374 9924 32832 3312 375 303 7132 705 58892 141754 21904 10928 87 213 1330 1982 2792 4652 2480 39211 2595 4728 9009 6200 2057 19681 2406 480 12895 97534 787 2005 669 2404 44220 1301 3752 4535 19209 2786 20002 7802 9967 4474 9714 1825 454 2316 1980 5093 21259 25504 22961 72030 2448 1926 2475 527 2676 492 1945 1636 4100 3702 6376 10616 3591 2038 2930 1681 4561 8593 2150 5153 4108 2346 12278 2268 1245
internal_count=248731 246714 2017 233478 13236 643 268 201 200646 1374 9924 32832 3312 375 303 7132 705 58892 141754 21904 10928 87 213 1330 1982 2792 4652 2480 39211 2595 4728 9009 6200 2057 19681 2406 480 12895 97534 787 2005 669 2404 44220 1301 3752 4535 19209 2786 20002 7802 9967 4474 9714 1825 454 2316 1980 5093 21259 25504 22961 72030 2448 1926 2475 527 2676 492 1945 1636 4100 3702 6376 10616 3591 2038 2930 1681 4561 8593 2150 5153 4108 2346 12278 2268 1245
is_linear=0
shrinkage=0.0523136


Tree=7
num_leaves=93
num_cat=0
split_feature=78 4 4 75 4 1 51 14 3 86 85 4 78 4 75 51 1 76 62 4 4 85 4 4 3 75 73 74 85 57 4 4 65 62 73 76 85 4 78 41 74 4 4 4 72 76 82 65 4 4 78 85 4 72 83 75 4 4 4 51 75 62 81 74 4 78 4 85 4 72 51 63 76 83 81 63 4 83 80 66 4 85 4 75 80 4 83 63 63 83 81 4
split_gain=4.8942e+06 1.421e+06 1.10639e+06 240825 224931 160828 138781 121348 120080 68620.9 36817.4 35739.2 35729.9 32183.9 29888.3 11466.2 8682 6248.21 5010.62 4738.18 4635.55 4357.94 4081.12 3788.89 3552.47 3408.34 2601.55 1590.4 1507.12 1175.82 922.131 593.598 532.023 530.682 525.667 489.418 485.331 442.751 434.62 824.462 427.509 414.155 410.193 408.876 405.871 275.121 207.201 193.156 134.274 86.4254 82.0463 81.1583 78.9969 67.1939 65.4557 62.6801 51.8702 50.1007 46.2676 44.569 47.2962 43.4457 123.446 33.8586 30.7967 29.5846 28.8624 18.7049 18.2304 16.6287 53.4125 13.4854 17.0506 10.636 10.5028 11.3262 9.12802 7.82674 5.34236 6.06623 5.31442 5.21458 4.1627 3.70821 3.70656 2.88117 2.82524 2.27953 1.35781 1.02872 0.809977 0.686884
threshold=37.890000000000008 8.8725000000000005 75.030000000000015 20.025000000000002 2.6870000000000007 20002.500000000004 53.580000000000005 43.140000000000008 16.500000000000004 147.00000000000003 13.942500000000001 0.92020000000000013 48.340000000000011 5.3140000000000009 27.315000000000001 53.580000000000005 20014.500000000004 11.645000000000001 65.530000000000015 0.36090000000000005 1.7795000000000003 17.150000000000002 3.8430000000000004 6.9910000000000005 9.5000000000000018 31.385000000000002 24.225000000000005 10.412000000000001 22.105000000000004 15.982000000000001 1.3295000000000001 4.5215000000000005 9.3775000000000031 44.680000000000007 15.588000000000003 6.1225000000000014 7.846000000000001 2.2310000000000003 8.2050000000000018 0.93430000000000013 12.155000000000003 3.2115000000000005 0.63265000000000005 51.265000000000008 0.11362500000000002 13.075000000000001 22.150000000000002 10.912000000000001 33.890000000000008 1.5635000000000001 4.9160000000000013 5.7250000000000005 1.1505000000000003 7.346000000000001 4.1660000000000013 3.4505000000000003 3.0010000000000003 2.0190000000000006 2.4580000000000006 5.7825000000000015 4.8420000000000014 6.3270000000000008 6.5450000000000008 0.22455000000000003 0.76085000000000014 9.6620000000000008 0.48765000000000008 18.510000000000002 6.5525000000000011 4.2825000000000015 3.7570000000000001 4.0215000000000005 3.3895000000000004 2.8210000000000002 3.3370000000000002 2.9795000000000003 1.6625000000000003 2.5320000000000005 3.0810000000000004 2.3310000000000004 3.5970000000000004 2.3290000000000002 1.0185000000000002 2.1060000000000003 2.5205000000000006 1.4465000000000001 1.8815000000000002 2.5340000000000003 2.3490000000000006 2.6260000000000003 3.4870000000000005 1.2325000000000002
decision_type=2 2 2 2 2 2 2 2 2 2 2 2 2 2 2 2 2 2 2 2 2 2 2 2 2 2 2 2 2 2 2 2 2 2 2 2 2 2 2 2 2 2 2 2 2 2 2 2 2 2 2 2 2 2 2 2 2 2 2 2 2 2 2 2 2 2 2 2 2 2 2 2 2 2 2 2 2 2 2 2 2 2 2 2 2 2 2 2 2 2 2 2
left_child=1 4 12 10 11 6 -4 8 -8 -10 17 19 33 22 26 -7 24 27 43 44 30 34 41 35 -17 -16 46 32 67 45 52 54 38 -2 -12 51 53 57 39 -3 -29 56 66 -14 -1 -19 -5 -34 -27 85 69 59 82 61 71 74 73 86 81 60 -15 62 -25 -46 -44 -40 -21 -23 -37 70 -33 72 -24 84 75 -43 -51 87 79 -58 -57 88 -13 -59 -6 -32 -22 -60 -39 -79 -76 -54
right_child=2 3 5 14 13 15 7 -9 9 -11 21 20 18 23 25 16 -18 29 -20 42 37 28 31 36 -26 48 -28 40 -30 -31 49 50 47 -35 -36 68 -38 58 65 -41 -42 55 64 -45 63 -47 -48 -49 -50 76 -52 -53 91 -55 -56 80 78 83 77 -61 -62 -63 -64 -65 -66 -67 -68 -69 -70 -71 -72 -73 -74 -75 90 -77 -78 89 -80 -81 -82 -83 -84 -85 -86 -87 -88 -89 -90 -91 -92 -93
leaf_value=-0.09576969614272543 1.3761874361001032 0.10567559453133274 3.1450759884758304 0.66175442428267428 -0.0012492865974641227 2.7875192746704647 3.8418399518007376 8.7906393339628419 4.7935296507957341 8.6730728051746908 0.43283118993882364 -0.06132240282945705 1.613230999059315 0.079153291639153883 0.96224997562607872 3.004529558280125 3.1225164186946532 0.34691983000042237 2.3607229182686722 -0.081209422557699418 -0.030307777490252562 0.54197117216099511 0.033346662830272551 0.10820647755596408 4.2105944882992032 1.0507535994222192 0.83161134395384506 0.30066331862758083 0.85073547899071256 0.59909110622769934 -0.046266675814247905 0.04037323595085561 0.26159713268859747 1.5947332672679198 0.49741459367585 0.13111979034173921 0.20327311960269329 -0.014917564763722128 0.23210809412987579 0.2492500116852491 0.42218034286732653 0.013365856627001604 -0.071070784071342444 1.9527847513757317 -0.090263257550117285 0.39538465667007544 0.73732063523559532 0.35261772098104111 1.1962944609528703 -0.038752415134727693 0.087558105286664578 0.11877386700891837 -0.054008626888902497 0.17923387059773488 0.059235616072679936 0.030164258108519804 0.0043226368571301806 -0.022408611652865989 -0.007411639173443888 0.13074964564777417 0.10254745557524035 0.16599471711229882 0.16715413197541498 -0.085635802188191362 -0.066455661948827696 0.27498146645477273 -0.07619146649458125 0.59715100614561645 0.14667164069951888 0.074421988279897586 0.074852291691074407 0.052864520936222861 0.046361358884207171 0.0085540058756310884 0.025471450605612418 0.023327179483894428 -0.034657326635208582 -0.002985120173943436 0.017082169360281216 0.013692411713284185 0.03698551868069018 -0.01018709023674671 -0.0574220591622586 -0.018141272243195689 0.0038750086925374294 -0.04243534908732479 -0.02614309544161016 -0.00076015801549200615 -0.0090547132511259766 -1.9612232702496921e-05 0.034125160982536713 -0.050189105141432329
leaf_weight=67642 485 242 67 786 433 71 89 40 36 36 1196 4821 96 442 689 35 90 1388 131 9194 2887 647 547 244 178 262 685 1529 66 67 3883 260 1399 180 850 1336 1956 2197 1066 220 107 611 9479 464 14303 793 554 101 462 5526 1706 1478 3804 1228 2032 1154 319 2626 2115 187 1693 1061 258 13326 15148 194 11081 623 1166 2147 360 960 1641 1654 1103 1245 5025 1321 1661 1169 1726 2414 7546 1919 1573 4808 2275 233 350 628 260 4646
leaf_count=67642 485 242 67 786 433 71 89 40 36 36 1196 4821 96 442 689 35 90 1388 131 9194 2887 647 547 244 178 262 685 1529 66 67 3883 260 1399 180 850 1336 1956 2197 1066 220 107 611 9479 464 14303 793 554 101 462 5526 1706 1478 3804 1228 2032 1154 319 2626 2115 187 1693 1061 258 13326 15148 194 11081 623 1166 2147 360 960 1641 1654 1103 1245 5025 1321 1661 1169 1726 2414 7546 1919 1573 4808 2275 233 350 628 260 4646
internal_value=0.000182284 -0.0207094 2.57759 0.492564 -0.0514173 4.36495 5.36893 6.0699 5.29061 6.9226 0.367847 -0.0725399 1.72589 0.0737602 0.872517 3.61959 3.7938 0.29999 1.99525 -0.0869201 -0.0383833 0.51009 0.0379159 0.14691 4.04396 1.05862 0.741612 0.266195 0.585443 0.372613 -0.0484735 0.0636514 0.244075 1.44039 0.460241 0.120138 0.182337 -0.0170555 0.222509 0.175323 0.309265 0.0186458 -0.0728785 1.90106 -0.093534 0.364998 0.69424 0.268347 1.14705 -0.0401673 0.0777283 0.107876 -0.0561358 0.167447 0.051427 0.0285641 0.00972308 -0.0248736 -0.00883061 0.100744 0.097889 0.157821 0.1395 -0.0880459 -0.0682468 0.239321 -0.0784859 0.570133 0.13857 0.071527 0.0609319 0.0462807 0.0432436 0.00538651 0.0232973 0.0201861 -0.0368303 -0.00476832 0.0146859 0.0118418 0.0343529 -0.0123009 -0.0589704 -0.0206648 0.00265789 -0.0441832 -0.0285265 -0.00684757 -0.0142072 -0.00214473 0.027334 -0.0519476
internal_weight=248731 246733 1998 13926 232807 642 268 201 161 72 10488 199197 1356 33610 3438 374 303 7106 691 140173 59024 3382 22561 11049 213 1413 2025 4858 1336 2248 40059 9653 3222 665 2046 6302 4747 18965 1722 462 1636 12908 44902 560 95271 2181 1340 1500 724 19242 4473 3800 20817 2791 5180 6099 6809 9707 9258 2322 2135 1563 502 27629 24627 1260 20275 1270 2502 2767 620 3148 2188 3660 3219 1856 10551 4297 3149 1488 2880 4961 12367 4545 2006 8691 5162 2348 2547 1949 1363 8450
internal_count=248731 246733 1998 13926 232807 642 268 201 161 72 10488 199197 1356 33610 3438 374 303 7106 691 140173 59024 3382 22561 11049 213 1413 2025 4858 1336 2248 40059 9653 3222 665 2046 6302 4747 18965 1722 462 1636 12908 44902 560 95271 2181 1340 1500 724 19242 4473 3800 20817 2791 5180 6099 6809 9707 9258 2322 2135 1563 502 27629 24627 1260 20275 1270 2502 2767 620 3148 2188 3660 3219 1856 10551 4297 3149 1488 2880 4961 12367 4545 2006 8691 5162 2348 2547 1949 1363 8450
is_linear=0
shrinkage=0.0523136


Tree=8
num_leaves=107
num_cat=0
split_feature=85 85 70 76 85 98 56 74 0 85 76 85 78 14 87 14 54 63 74 76 76 56 74 63 85 76 76 78 59 13 67 85 52 39 86 54 76 39 74 37 57 37 76 74 76 85 64 76 59 74 93 63 74 67 26 63 39 37 39 76 52 84 74 37 93 76 39 37 39 52 63 26 39 74 76 76 74 73 26 76 39 76 76 37 26 76 64 64 73 85 85 76 26 39 74 39 37 54 52 39 15 74 77 39 39 39
split_gain=4.40571e+06 1.24405e+06 1.00957e+06 206985 202030 107024 105739 37223.9 34012.1 30101.8 29957.8 28692.7 24104.7 14440.8 14134.4 9869.27 8601.21 8215.76 7289.79 5388.07 4248.7 3915.99 3855.36 2908.16 2788.69 2749.36 2652.86 2581.39 1532.32 1490.08 1250.64 1180.99 1162.02 1106.13 1071.88 961.494 901.889 737.277 730.525 679.119 665.715 655.628 535.397 474.858 471.671 444.981 443.021 439.288 414.337 413.179 394.077 294.886 286.21 272.231 208.828 180.057 177.96 172.664 170.84 153.489 141.283 137.344 126.533 122.19 101.376 98.8192 95.7406 94.3009 92.8952 89.6385 89.4907 85.5631 79.8335 79.5276 79.2613 78.5806 76.6498 76.293 68.7391 65.7403 58.564 56.4262 52.7828 48.7542 46.9316 44.1649 43.5664 40.9492 40.1379 33.6206 32.2724 31.9312 29.5992 28.7191 23.9282 22.5624 20.638 16.7578 12.3523 11.1815 10.0908 2.79977 1.93317 1.12547 1.00966 1.00092
threshold=37.640000000000008 8.7680000000000025 70.850000000000009 2.8210000000000002 20.210000000000004 7.5000000000000009 59.850000000000001 1.0815000000000003 10001.500000000002 13.105000000000002 5.7250000000000005 48.045000000000009 27.790000000000003 35.485000000000007 2.4950000000000006 54.110000000000007 12.3725 0.46670000000000006 3.5010000000000003 17.025000000000002 4.1540000000000008 59.850000000000001 1.9165000000000003 1.3175000000000001 24.540000000000003 7.5485000000000007 11.013000000000002 31.850000000000005 18.695000000000004 1.0000000180025095e-35 6.9585000000000008 14.865 3.6315000000000004 1.5195000000000001 209.50000000000003 21.040000000000003 8.7850000000000019 1.1910000000000001 0.16815000000000002 1.0355000000000001 14.667000000000002 0.61415000000000008 3.3895000000000004 1.4345000000000001 4.9160000000000013 10.065000000000003 0.88835000000000008 6.737000000000001 42.935000000000009 2.4615000000000005 1.1720666666666668 2.1610000000000005 5.2440000000000007 10.545000000000002 0.83080000000000009 0.69755000000000011 3.2080000000000006 2.4920000000000004 0.73025000000000018 12.307500000000003 5.7630000000000008 22.010000000000002 2.8170000000000006 2.7115000000000005 2.4445000000000001 18.395000000000003 1.1515000000000002 0.78450000000000009 3.0690000000000004 1.2045000000000001 3.1490000000000005 0.39315000000000005 0.35730000000000006 2.1850000000000005 11.645000000000001 3.7350000000000008 1.7025000000000003 0.31015000000000009 0.31155000000000005 6.1225000000000014 1.0355000000000001 4.5090000000000012 8.1620000000000008 1.3285000000000002 2.1140000000000003 3.0930000000000004 1.2975000000000001 1.1305000000000003 0.056780000000000004 0.59215000000000007 15.895000000000001 5.2175000000000002 0.12970000000000001 0.25890000000000007 4.2825000000000015 0.25890000000000007 1.3660000000000003 0.9567500000000001 2.1240000000000006 0.73665000000000014 0.5837500000000001 2.5090000000000003 9.4425000000000008 1.9335000000000002 0.20890000000000003 0.78160000000000018
decision_type=2 2 2 2 2 2 2 2 2 2 2 2 2 2 2 2 2 2 2 2 2 2 2 2 2 2 2 2 2 2 2 2 2 2 2 2 2 2 2 2 2 2 2 2 2 2 2 2 2 2 2 2 2 2 2 2 2 2 2 2 2 2 2 2 2 2 2 2 2 2 2 2 2 2 2 2 2 2 2 2 2 2 2 2 2 2 2 2 2 2 2 2 2 2 2 2 2 2 2 2 2 2 2 2 2 2
left_child=1 3 11 7 9 6 -4 17 14 26 20 48 24 34 -7 -8 25 29 22 31 33 -13 41 46 61 47 45 -14 -18 50 52 -11 51 42 -10 65 80 44 88 49 59 43 72 86 81 102 55 58 -2 73 69 71 67 -32 87 92 103 83 79 -28 100 -6 -51 101 96 -21 -49 94 -39 97 -53 -25 85 -24 -38 93 -45 -40 -57 -12 82 104 -27 -43 -56 -5 -9 -48 -31 -79 -33 -46 -19 -44 -20 -77 -52 -1 -71 -47 -34 -41 -3 -35 -22 -74
right_child=2 4 5 10 12 8 15 18 13 19 16 21 27 -15 -16 -17 28 23 30 35 37 -23 39 32 -26 36 40 -29 -30 38 53 90 60 56 -36 -37 74 68 77 63 -42 57 75 76 91 99 54 66 -50 62 64 70 -54 -55 84 78 -58 -59 -60 -61 -62 -63 -64 -65 -66 -67 -68 -69 -70 98 -72 -73 105 -75 -76 95 -78 89 -80 -81 -82 -83 -84 -85 -86 -87 -88 -89 -90 -91 -92 -93 -94 -95 -96 -97 -98 -99 -100 -101 -102 -103 -104 -105 -106 -107
leaf_value=-0.063991215512717317 1.2823737392714443 0.22196169249472897 3.1316203741331652 0.0097487418036777771 0.62788478985495055 3.5976390697281628 5.3568241833348837 -0.050021517348325564 2.8836838185585125 0.3824059382388732 0.1095953340086612 1.7463877870511155 0.9201612856271586 3.9719789843225941 5.2611871843408018 7.2802425766243797 0.44214550604113917 -0.071320434798258642 0.045349458567238092 0.50880832530122688 0.055649895410570208 2.1144993125942948 -0.020323082667416035 -0.034047697941879375 0.80428923398989416 0.17556809314309169 0.30367447188066898 1.0907646150291144 0.86179154388911516 -0.091049730424579409 0.20159673440455869 0.43317387271598451 0.062589223102133107 0.080944430256986763 3.5738390768117534 0.855581561660131 0.26277840088498905 0.13979531819001911 -0.083181300750244283 0.039272358070316711 0.53650623679285758 -0.010075868305612681 0.029920983277051678 -0.037242132827705311 0.082023403451678731 0.26639342460525978 -0.056795390860848824 0.15253845796306384 1.4703447887875747 -0.0013813504210217276 -0.04242469245394042 -0.00045101897461306595 0.14405392677787468 0.38504583163056311 -0.020292758361181728 -0.063184541945906725 0.19436878211499767 0.088670367779174072 0.18183552809233747 0.34369149097427881 0.19176552623985227 0.6966515556118148 0.020333667541428919 0.14286725081914431 0.072635759238391245 0.56580906795716512 0.23905675444624269 0.11316203746974039 0.22491653443108078 -0.036351681267417904 0.048646484237633979 -0.0033008055759332581 0.031804877934801301 -0.010856421744599545 0.36207446052349751 0.042937183149022069 -0.029179367124014484 -0.077929769999082715 -0.031895090847688191 0.12771207771955198 0.26758461646899984 0.070041991004297144 0.1969320560078846 0.018253457081751998 0.036966895812368353 0.018976592085917274 -0.043011287072363964 -0.044547511230776375 -0.087267965306243284 -0.063258448295380854 0.47942597312402779 0.09532451910101998 -0.061211747700419018 0.053097078124529774 0.074299975982654518 0.066539042710508742 -0.00060433321419330673 -0.050121770437950526 0 0.30987600093065382 0.11054275241617371 0.064426433992767457 0.24296118136047831 0.11502020541108264 0.074777073073665309 0.04895349476678678
leaf_weight=2756 430 1207 54 2765 641 55 79 9797 196 1352 1323 495 673 115 60 42 115 16225 304 636 2021 187 5127 2038 704 1304 1309 640 36 60697 142 667 102 120 64 34 221 179 15726 119 45 801 2605 10638 1359 1221 8706 2064 240 4911 40 669 191 34 292 17135 85 56 153 757 47 689 859 56 48 730 50 115 73 342 116 301 159 4922 66 2878 5217 12789 230 2034 47 2171 1309 204 41 3283 4231 1069 14433 676 674 2026 1294 187 185 160 192 497 35 183 46 107 828 105 97 171
leaf_count=2756 430 1207 54 2765 641 55 79 9797 196 1352 1323 495 673 115 60 42 115 16225 304 636 2021 187 5127 2038 704 1304 1309 640 36 60697 142 667 102 120 64 34 221 179 15726 119 45 801 2605 10638 1359 1221 8706 2064 240 4911 40 669 191 34 292 17135 85 56 153 757 47 689 859 56 48 730 50 115 73 342 116 301 159 4922 66 2878 5217 12789 230 2034 47 2171 1309 204 41 3283 4231 1069 14433 676 674 2026 1294 187 185 160 192 497 35 183 46 107 828 105 97 171
internal_value=0.000202228 -0.0197141 2.43397 -0.047411 0.478536 4.10119 5.25741 -0.0660009 3.66763 0.356818 0.0829589 1.6088 0.828718 3.37494 4.54438 6.13637 0.164131 -0.0783609 -0.0256986 0.464592 0.0483045 1.85368 -0.0286327 -0.0604018 0.713879 0.157109 0.277154 1.00506 0.553845 -0.0863739 0.115991 0.420093 -0.0130514 0.0292917 3.08103 0.549291 0.198286 0.0782891 -0.0875666 -0.00785292 0.324033 -0.0394366 0.0267774 -0.0408715 0.075305 0.248138 -0.0638891 0.135428 1.35432 -0.00930385 -0.0544645 -0.0208704 0.0871963 0.242309 -0.0540935 -0.0667178 0.126765 0.000768444 0.123542 0.318771 0.109998 0.664693 0.00181894 0.0722343 0.00456962 0.540234 0.154919 0.0684229 0.166945 -0.0590794 0.00662901 -0.0301924 0.0162343 -0.0157116 0.288788 0.0382636 -0.0346073 -0.0804445 -0.0627867 0.12071 0.188223 0.0635367 0.186502 -0.00407891 -0.0123953 0.0147994 -0.0479296 -0.0554883 -0.0903286 -0.0772195 0.457282 0.090103 -0.0705937 0.0315907 0.0570198 0.0442974 -0.00907428 -0.0619735 -0.0333203 0.272663 0.0802834 0.0526297 0.230851 0.0987215 0.0567023 0.0416087
internal_weight=248731 246714 2017 233724 12990 665 175 204558 490 9643 29166 1352 3347 375 115 121 8722 156542 48016 4093 20444 682 47045 48311 2034 8571 5550 1313 151 108231 971 2693 3319 12518 260 1400 2947 7926 104321 16101 2111 30944 12208 29883 7674 3439 44992 5624 670 15819 3910 3124 795 176 10108 34884 310 1061 3510 2066 195 1330 5770 282 280 1366 2114 604 252 3630 785 2339 6378 10049 287 5830 15855 29191 17365 3357 2660 4289 2613 1005 333 6048 14028 9775 75130 13465 1341 3385 17519 2792 489 3038 232 3253 377 1404 148 226 2035 225 2118 330
internal_count=248731 246714 2017 233724 12990 665 175 204558 490 9643 29166 1352 3347 375 115 121 8722 156542 48016 4093 20444 682 47045 48311 2034 8571 5550 1313 151 108231 971 2693 3319 12518 260 1400 2947 7926 104321 16101 2111 30944 12208 29883 7674 3439 44992 5624 670 15819 3910 3124 795 176 10108 34884 310 1061 3510 2066 195 1330 5770 282 280 1366 2114 604 252 3630 785 2339 6378 10049 287 5830 15855 29191 17365 3357 2660 4289 2613 1005 333 6048 14028 9775 75130 13465 1341 3385 17519 2792 489 3038 232 3253 377 1404 148 226 2035 225 2118 330
is_linear=0
shrinkage=0.0523136


Tree=9
num_leaves=94
num_cat=0
split_feature=78 4 4 4 79 98 0 0 3 4 4 4 85 79 58 55 86 72 4 4 4 4 85 79 56 4 60 75 72 4 4 83 38 75 84 4 84 72 4 4 73 75 4 60 75 75 4 69 64 64 4 4 75 4 4 4 4 4 63 84 64 83 81 54 75 4 4 61 68 4 84 72 81 4 84 75 4 68 83 84 70 4 75 84 75 4 57 4 82 79 57 81 84
split_gain=3.96493e+06 1.14742e+06 905991 192220 184504 92668.6 95460 40213.1 55411.2 29666.7 28533.3 28332.7 25333 24874.7 11680.9 8351.36 8079.7 4165.34 4045.58 3803.69 3597.38 3343.14 3215.37 3166.84 2897.04 2173.52 1158.63 1153.5 945.042 913.414 666.766 472.814 463.862 1246.85 454.024 444.336 415.741 407.058 404.391 395.304 368.48 359.764 284.799 250.861 168.999 119.021 93.5767 84.9642 78.8342 75.7195 72.0216 66.1284 63.7057 53.2986 52.3584 49.9368 44.9113 40.3005 40.0867 85.7151 39.0681 36.8693 36.0257 72.1992 24.9764 22.9725 22.314 18.7166 18.4623 16.9864 10.5586 9.59273 9.51648 8.86304 8.02242 7.85178 6.76122 6.32631 6.21106 5.63654 3.56733 3.2415 3.12074 2.82636 2.81153 1.86608 1.64353 1.56883 1.41611 0.851664 0.609589 0.590545 0.508446
threshold=37.890000000000008 9.2550000000000008 75.030000000000015 2.7490000000000006 19.790000000000003 7.5000000000000009 10005.500000000002 10001.500000000002 21.500000000000004 0.94715000000000005 51.265000000000008 5.4910000000000005 13.942500000000001 27.090000000000003 64.480000000000018 59.900000000000006 216.30000000000004 11.947500000000002 0.39610000000000006 1.7795000000000003 3.9950000000000006 7.237000000000001 17.150000000000002 31.290000000000003 59.850000000000001 23.615000000000006 21.870000000000001 10.377500000000003 14.412000000000001 40.545000000000009 1.3295000000000001 8.1620000000000008 0.92170000000000007 6.9190000000000014 4.6540000000000008 3.3560000000000003 6.291500000000001 0.14460000000000003 2.2310000000000003 15.005000000000001 47.760000000000005 12.912000000000001 0.66480000000000017 34.545000000000009 4.088000000000001 9.0750000000000011 10.487000000000002 4.3340000000000005 5.9230000000000009 25.885000000000002 1.5635000000000001 3.0670000000000006 7.7560000000000011 3.6770000000000005 2.5170000000000003 1.1655000000000002 5.0325000000000015 2.0190000000000006 6.6225000000000014 6.5450000000000008 4.4120000000000008 3.8860000000000006 5.5060000000000011 4.205000000000001 0.27940000000000004 0.82255000000000011 0.56225000000000014 16.275000000000002 0.038250000000000006 4.892500000000001 6.7320000000000011 12.627500000000003 2.8840000000000003 2.3780000000000006 3.1890000000000005 10.925000000000002 1.6625000000000003 2.2310000000000003 3.4405000000000006 2.6220000000000003 2.8815000000000004 6.3270000000000008 2.5890000000000004 2.0970000000000004 3.7885000000000004 8.5950000000000006 2.5910000000000006 1.4685000000000004 1.8815000000000002 2.3170000000000006 2.4520000000000004 5.9010000000000007 2.6850000000000005
decision_type=2 2 2 2 2 2 2 2 2 2 2 2 2 2 2 2 2 2 2 2 2 2 2 2 2 2 2 2 2 2 2 2 2 2 2 2 2 2 2 2 2 2 2 2 2 2 2 2 2 2 2 2 2 2 2 2 2 2 2 2 2 2 2 2 2 2 2 2 2 2 2 2 2 2 2 2 2 2 2 2 2 2 2 2 2 2 2 2 2 2 2 2 2
left_child=1 3 10 9 12 6 -4 8 -7 18 29 20 17 25 -9 -8 -16 27 37 30 35 36 39 -15 40 -6 -24 32 71 -2 55 52 33 44 47 51 48 68 57 -14 -12 75 66 -25 -3 -35 -34 60 62 -27 87 72 58 78 73 -11 -36 88 59 -23 61 -22 63 -13 -39 -44 -20 -41 -1 -49 -38 -19 77 89 82 -29 -52 -5 80 86 -37 -50 -53 -59 -55 -33 -56 -32 -21 -40 -75 -64 -81
right_child=2 4 5 11 13 7 15 14 -10 19 24 21 22 23 16 -17 -18 28 42 38 34 31 26 43 -26 49 -28 41 -30 -31 50 85 46 45 56 53 70 64 54 67 -42 -43 65 -45 -46 -47 -48 69 81 -51 76 74 -54 84 79 -57 -58 83 -60 -61 -62 -63 91 -65 -66 -67 -68 -69 -70 -71 -72 -73 -74 90 -76 -77 -78 -79 -80 92 -82 -83 -84 -85 -86 -87 -88 -89 -90 -91 -92 -93 -94
leaf_value=-0.086358316977745583 1.1284090131999827 -0.042635943004450963 6.3297619280402788 -0.0019303958928033745 0.6069097483519883 3.0688840531366792 2.793491015036579 2.0920754037016631 5.7125575115080416 -0.052311895030425548 1.2706624922084675 0.063424623659061583 0.37380711378644915 0.85525932912625946 3.1159911113340679 4.2864678586207008 4.0453949132049445 0.31353892114010418 -0.071148181154651463 -0.02715649435530107 0.034176680859845585 0.10775108307775054 0.51166833318579497 0.97418049106794125 2.0231667687727901 0.69810319411331967 0.82041576097905777 0.25784687825159525 0.49257277873047828 1.3602076084323513 -0.04127980325772198 0.18225411448770312 0.23215031734955829 0.17546133626866214 0.069675001049428545 0.01434400410559713 0.12431414962707681 -0.079694942851808406 -0.013364555268273856 0.41841237406311982 1.7286938196537438 0.40412796715580201 -0.062300760350044983 1.1101203836239419 0.087066187415759028 0.22840369077555434 0.29525979695202975 0.059077547056771255 0.11084599085789855 0.79118489361801858 -0.03474681602649643 0.0098753083200348226 0.17255417338194301 0.033131839451907591 -0.0044447460555018144 -0.046354573217184565 0.083065706754152202 -0.020247361211117892 0.15732986182748659 0.15768549941552856 0.070449167754078987 0.048847857464722366 0.098033101529249531 0.099093343481456542 -0.075406531649044123 -0.058213790969308357 -0.066541173401823417 0.46591444191969178 -0.083300596767020341 0.078525476764826171 0.13843486676414427 0.34465279910839036 0.0094440732019823014 -0.0087397229580926071 0.019631616958905664 0.28366113335011883 -0.031078066579995029 0.0053346475663759345 0.028210384240811584 -0.00022491446586552793 0.023946855895809981 0.13374404851129071 0.015507345906825667 -0.016405575045428642 0.039268178151220801 0.20116853006789878 -0.0004849367577112382 -0.037859953833633754 -0.023544351492333346 -0.010116714426408184 -0.0059635143147424973 0.11316062670579802 0.0016440010998144516
leaf_weight=58448 155 38 84 363 1125 53 42 38 54 11524 38 337 699 694 260 46 65 691 11520 2888 770 269 1215 470 213 687 41 695 123 566 4730 801 219 209 1843 294 1282 15677 1979 959 384 77 13432 286 77 1709 327 1639 1062 251 5526 647 934 1391 1775 7712 1925 2454 1340 256 223 2362 1301 464 10481 10289 8204 389 13703 247 1177 1025 1788 2204 1636 1249 5025 1555 1829 635 864 194 1839 2091 1426 1128 500 3961 2274 1238 1002 383 637
leaf_count=58448 155 38 84 363 1125 53 42 38 54 11524 38 337 699 694 260 46 65 691 11520 2888 770 269 1215 470 213 687 41 695 123 566 4730 801 219 209 1843 294 1282 15677 1979 959 384 77 13432 286 77 1709 327 1639 1062 251 5526 647 934 1391 1775 7712 1925 2454 1340 256 223 2362 1301 464 10481 10289 8204 389 13703 247 1177 1025 1788 2204 1636 1249 5025 1555 1829 635 864 194 1839 2091 1426 1128 500 3961 2274 1238 1002 383 637
internal_value=0.00021837 -0.0185855 2.32006 -0.045468 0.454849 3.93747 5.02229 3.51992 4.48737 -0.0649197 1.54935 0.0703602 0.337481 0.779875 3.21056 3.65615 3.32673 0.276804 -0.0778289 -0.0334478 0.0369511 0.139538 0.455455 0.947198 1.81112 0.661339 0.523244 0.249753 0.343996 1.31402 -0.043018 0.172802 0.22555 0.212888 0.0626105 0.0199703 0.114087 -0.0837137 -0.0147195 0.413271 1.69431 0.280269 -0.0645041 1.02876 0.0423098 0.222944 0.271315 0.0524725 0.102665 0.724918 -0.0360818 0.0117869 0.158236 0.0309612 -0.00728405 -0.0499403 0.0766165 -0.0223303 0.150765 0.133041 0.0471142 0.0453367 0.0963667 0.084564 -0.0779912 -0.0605426 -0.0692503 0.432971 -0.0857831 0.0618249 0.131273 0.332642 0.00660913 -0.0101099 0.0163825 0.274828 -0.033027 0.00384312 0.0257893 -0.00210122 0.0217304 0.114772 0.0141404 -0.018537 0.0363434 0.193631 -0.00367346 -0.0397561 -0.0256183 -0.0121911 -0.00794582 0.101739 0.000537394
internal_weight=248731 246733 1998 233478 13255 642 172 470 107 199909 1356 33569 9742 3513 363 88 325 6439 141754 58155 22641 10928 3303 1450 635 2063 1256 4600 1839 721 38478 4728 2579 2033 9009 13632 6200 98309 19677 2047 422 2021 43445 756 115 1918 546 5241 3741 938 19242 7828 2799 5804 9970 19236 3768 9707 1865 525 3355 3132 2485 801 26158 23721 19724 1348 72151 1886 2459 1716 3706 6423 4122 1944 10551 1918 2987 3547 1158 1256 2486 4545 2817 1929 2275 8691 5162 3217 3206 1684 1272
internal_count=248731 246733 1998 233478 13255 642 172 470 107 199909 1356 33569 9742 3513 363 88 325 6439 141754 58155 22641 10928 3303 1450 635 2063 1256 4600 1839 721 38478 4728 2579 2033 9009 13632 6200 98309 19677 2047 422 2021 43445 756 115 1918 546 5241 3741 938 19242 7828 2799 5804 9970 19236 3768 9707 1865 525 3355 3132 2485 801 26158 23721 19724 1348 72151 1886 2459 1716 3706 6423 4122 1944 10551 1918 2987 3547 1158 1256 2486 4545 2817 1929 2275 8691 5162 3217 3206 1684 1272
is_linear=0
shrinkage=0.0523136


Tree=10
num_leaves=109
num_cat=0
split_feature=85 85 70 76 85 1 51 14 3 74 85 76 85 85 54 68 50 74 76 14 76 74 56 76 68 76 81 75 13 53 1 76 60 85 39 54 59 68 39 37 59 68 37 53 76 59 52 74 85 74 76 76 68 74 60 56 37 39 39 37 51 39 76 85 59 74 39 76 68 93 37 70 39 74 76 68 53 51 74 67 63 39 76 37 76 39 37 39 76 60 76 73 62 85 65 59 74 39 37 76 37 39 52 52 76 55 39 39
split_gain=3.56788e+06 1.00405e+06 824022 167132 163206 139687 119465 106324 102507 30046.3 24273.4 24214.1 23066.2 19432.3 7125.57 6528.72 6385.05 5971.63 4318.63 4075.47 3431.7 3200.9 3077.52 2401.7 2369.73 2128.62 2003.69 1968.82 1295 1221.09 1289.44 1029.32 1021.23 954.54 839.536 827.171 822.809 674.738 671.448 581.712 559.009 545.355 532.234 499.684 469.747 404.717 380.778 374.443 359.461 354.282 350.14 346.683 275.526 239.543 209.734 153.203 152.604 139.77 137.266 135.309 124.13 121.237 119.213 115.661 113.348 107.014 100.473 89.3181 80.1744 79.5647 77.5652 66.4061 65.9404 57.9596 57.1536 56.0743 53.6486 51.3593 50.582 47.946 45.1117 44.5654 38.6862 36.9256 35.4718 31.1616 29.458 29.3691 28.1981 27.9779 26.8893 25.8205 25.4396 22.2161 20.3508 19.585 18.5269 17.3399 15.6974 15.686 13.4483 11.7567 9.09411 5.69151 5.05396 3.66362 2.60346 0.259096
threshold=37.640000000000008 8.7680000000000025 70.850000000000009 2.8210000000000002 20.210000000000004 20002.500000000004 53.580000000000005 43.140000000000008 21.500000000000004 1.0685000000000002 13.105000000000002 5.7250000000000005 48.045000000000009 27.525000000000002 13.425000000000002 0.47960000000000008 28.195000000000004 3.5010000000000003 17.025000000000002 12.995000000000003 4.0610000000000008 1.8785000000000001 59.850000000000001 7.5485000000000007 1.6225000000000003 11.013000000000002 31.710000000000004 24.320000000000004 1.0000000180025095e-35 54.485000000000007 20016.500000000004 9.6050000000000022 6.9750000000000005 14.865 1.5195000000000001 21.040000000000003 18.695000000000004 3.5070000000000001 1.8695000000000002 0.78145000000000009 14.155000000000003 0.16265000000000004 0.60350000000000004 1.0925000000000002 4.9160000000000013 42.935000000000009 2.1790000000000007 1.4075000000000002 10.065000000000003 2.3815000000000004 6.541500000000001 3.3895000000000004 0.78630000000000011 5.2440000000000007 10.192500000000001 2.8720000000000003 2.5170000000000003 1.0315000000000001 3.5010000000000003 2.1415000000000002 2.7995000000000005 1.1515000000000002 12.307500000000003 22.105000000000004 1.1755000000000002 2.8170000000000006 0.74730000000000019 18.395000000000003 5.822000000000001 2.7138583333333339 0.78450000000000009 4.5810000000000004 0.35730000000000006 1.6385000000000003 8.1620000000000008 2.1010000000000004 1.7935000000000001 1.1165000000000003 2.1415000000000002 0.29915000000000008 0.64280000000000015 0.32780000000000004 3.7350000000000008 0.16395000000000001 3.0930000000000004 4.0680000000000005 1.2605000000000002 0.31410000000000005 7.0020000000000007 1.1765000000000001 5.3725000000000014 0.044180000000000004 34.920000000000009 15.895000000000001 3.6415000000000002 2.1280000000000006 4.2825000000000015 0.34685000000000005 1.4430000000000003 6.1225000000000014 3.1870000000000007 0.65575000000000017 11.307500000000003 2.9715000000000003 11.645000000000001 4.3575000000000008 2.1010000000000004 0.75320000000000009
decision_type=2 2 2 2 2 2 2 2 2 2 2 2 2 2 2 2 10 2 2 2 2 2 2 2 2 2 2 2 2 2 2 2 2 2 2 2 2 2 2 2 2 2 2 2 2 2 2 2 2 2 2 2 2 2 2 2 2 2 2 2 2 2 2 2 2 2 2 2 2 2 2 2 2 2 2 2 2 2 2 2 2 2 2 2 2 2 2 2 2 2 2 2 2 2 2 2 2 2 2 2 2 2 2 2 2 2 2 2
left_child=1 3 12 9 10 6 -4 8 19 15 25 20 45 27 23 28 29 21 33 -8 34 42 -14 50 43 48 -15 63 46 -7 -31 61 53 -12 51 67 -16 55 44 49 62 91 47 52 71 -2 64 83 -3 78 57 72 80 70 -34 75 98 99 106 86 76 74 -27 -6 89 -51 88 -20 105 103 96 97 84 -49 -25 -26 -45 -54 -23 -43 -17 82 -53 -11 -5 -40 -44 90 -52 -1 -46 -30 -28 -35 -57 -66 -19 -22 -41 -13 -61 -73 -50 -48 -33 -39 -36 -74
right_child=2 4 5 11 13 16 7 -9 -10 17 18 14 22 26 36 24 -18 32 35 -21 38 39 -24 31 37 40 92 -29 41 30 -32 104 54 93 58 -37 -38 68 85 56 -42 79 59 60 87 -47 69 73 102 65 66 81 77 -55 -56 94 -58 -59 -60 100 -62 -63 -64 -65 95 -67 -68 -69 -70 -71 -72 101 107 -75 -76 -77 -78 -79 -80 -81 -82 -83 -84 -85 -86 -87 -88 -89 -90 -91 -92 -93 -94 -95 -96 -97 -98 -99 -100 -101 -102 -103 -104 -105 -106 -107 -108 -109
leaf_value=-0.056540033897830737 1.1502330246202188 0.20734125476402232 2.6262399437999093 0.0087301257092388014 0.56342519099377208 2.2800254680309671 2.9602624543305844 7.8055591422422106 6.4681126422196371 -0.044447768596531177 0.34344661832456375 0.098707803721325968 1.5686285389686256 0.82520297757704497 0.43346170353719582 -0.063975249114236715 3.5232048790950552 0.040990537414376457 0.45588473126864953 4.1420827081417047 0.050221772908561238 -0.019653755646162119 1.8975896696210193 0.15773201425909117 -0.021743907689009277 0.27260602319207206 0.92462495053278304 0.71503034047915826 -0.081818043237541924 3.1137580623436065 2.429825752396054 0.25510036528440927 0.18146315694174384 0.38911860151577948 0.072841970458783531 0.77615184729203501 0.78405898093916715 0.052595431635575951 0.14993773579497424 0.026667958718869449 0.4857705826280701 -0.074970514491240037 -0.0098118463697101088 -0.037434694372461184 0.074940100105778826 1.3237454569984046 0 -0.034664062101698048 0.24147549773955118 -0.0028558397614795324 0.12461350053356343 0.02699773687860945 -0.053539933740541543 0.13024233557377957 0.33991494627197061 0.025457858968373586 0.12179335948837589 0.17274968243837477 0.18125589764256059 0.034793169718926889 0.055146707064962795 0.25642521934719975 0.30855212722197667 0.62710608220808206 -0.031437574441163817 0.017201456787877829 0.1935225160669925 0.5084188982518637 0.15545656796609386 0.094618900732110114 0.10271918513095636 0.063018471163511725 0.028231323615848049 -0.027975735391612105 0.17846769971583099 -0.0020782245874923504 -0.008516188302722244 -0.035915833309628414 -0.011689636589620384 -0.070131312842348345 -0.058949039357440385 0.054958589429308868 0.03703479196259591 -0.032786483861428406 0.017024869254133358 0.23736341283928949 0.012407592643013533 0.10967634094059456 0.14056986381634279 -0.030238897041654732 0.087437848260042569 -0.078658204695415485 1.0506470406556705 0.43096824783271898 0.077176866206997 0 0.06705667485881614 0.079130598502939978 0.052953423802681948 0.11157494456359322 0.094548543739939608 0.090031239712736286 0.30357631291611731 0.023269761935995139 0.3288817587346875 0.089217736754767518 0.10627091202728667 0.04382470565089442
leaf_weight=3308 430 2035 69 2765 655 57 64 40 54 12980 1352 1336 495 696 75 13728 106 304 636 43 3181 5067 187 1305 1057 1309 416 708 59155 167 65 141 130 667 125 34 36 96 139 270 45 15610 810 2141 1971 240 81 9083 1336 6259 1344 2636 17121 199 38 127 69 102 68 45 39 60 757 631 476 821 103 730 46 38 115 1670 149 6858 1388 678 215 563 4220 14237 11581 268 2237 982 3283 34 195 153 1360 161 1296 15130 241 674 34 49 185 91 130 1380 34 99 68 36 92 57 98 181
leaf_count=3308 430 2035 69 2765 655 57 64 40 54 12980 1352 1336 495 696 75 13728 106 304 636 43 3181 5067 187 1305 1057 1309 416 708 59155 167 65 141 130 667 125 34 36 96 139 270 45 15610 810 2141 1971 240 81 9083 1336 6259 1344 2636 17121 199 38 127 69 102 68 45 39 60 757 631 476 821 103 730 46 38 115 1670 149 6858 1388 678 215 563 4220 14237 11581 268 2237 982 3283 34 195 153 1360 161 1296 15130 241 674 34 49 185 91 130 1380 34 99 68 36 92 57 98 181
internal_value=0.000230834 -0.0176919 2.1904 -0.0425741 0.429923 3.69664 4.63278 5.28705 4.56975 -0.0592789 0.32052 0.0745743 1.44489 0.74467 0.147553 -0.0705011 3.03558 -0.0234486 0.417308 3.50614 0.043417 -0.0260618 1.66457 0.142062 -0.0543069 0.248973 0.899137 0.638931 -0.0775993 2.83242 2.94604 0.180207 0.104809 0.377427 0.0250544 0.493199 0.561287 0 0.0684965 -0.00768242 0.291004 -0.0787455 -0.0360394 -0.0568176 0.0663341 1.21656 -0.0487529 -0.0373447 0.22295 -0.00934236 0.121715 0.0228011 -0.0581212 0.0794537 0.222276 -0.00956301 0.0495617 0.108047 0.112708 0 -0.0332947 0.170813 0.286177 0.595792 -0.0518973 -0.000494245 0.135268 0.484841 0.0912212 0.030472 0.0619693 0.0559893 0.0145827 -0.0318046 0.16863 -0.0141987 -0.0348998 -0.0529957 -0.0160622 -0.0726746 -0.0616891 0.0329437 0.0316646 -0.0436485 0.0132738 0.170969 -0.00526305 0.0814744 0.132822 -0.0554021 0.0800177 -0.0811796 0.974312 0.410944 0.0385779 -0.0281911 0.051544 0.0511428 0.0359908 0.105407 0.0649977 0.0647583 0.24508 0.00649798 0.287793 0.0686736 0.0893558 0.0376722
internal_weight=248731 246714 2017 233724 12990 665 270 201 161 204558 9643 29166 1352 3347 8722 155764 395 48794 4093 107 20444 47823 682 8611 47483 5550 1353 1994 108281 289 232 2986 971 2693 11810 1400 111 2095 8634 16836 2111 104132 30987 45388 8461 670 4149 29903 3439 16367 5625 11519 42993 803 168 1896 469 2818 291 1084 2395 2753 2066 1286 3994 7080 2807 1366 199 155 604 5041 6378 15941 2693 1735 2356 17684 9287 29847 25309 5141 4873 13962 6048 173 1005 3420 2704 3469 3267 74285 657 1341 161 525 489 3272 400 2716 79 1769 1404 117 233 153 223 330
internal_count=248731 246714 2017 233724 12990 665 270 201 161 204558 9643 29166 1352 3347 8722 155764 395 48794 4093 107 20444 47823 682 8611 47483 5550 1353 1994 108281 289 232 2986 971 2693 11810 1400 111 2095 8634 16836 2111 104132 30987 45388 8461 670 4149 29903 3439 16367 5625 11519 42993 803 168 1896 469 2818 291 1084 2395 2753 2066 1286 3994 7080 2807 1366 199 155 604 5041 6378 15941 2693 1735 2356 17684 9287 29847 25309 5141 4873 13962 6048 173 1005 3420 2704 3469 3267 74285 657 1341 161 525 489 3272 400 2716 79 1769 1404 117 233 153 223 330
is_linear=0
shrinkage=0.0523136


Tree=11
